solver_type L1R_L2LOSS_SVC
nr_class 20
label 1 2 3 4 5 6 7 8 9 10 11 12 13 14 15 16 17 18 19 20
nr_feature 62061
bias -1
w
0.007626345088240546 -0.2933292852858216 -0.19220581510492 -0.1481295477817602 -0.1738900609580902 -0.01482710963243396 -0.0210671317061812 -0.07555625901990703 -0.1268732320401926 -0.1473072474377085 -0.08615742308604848 -0.06078218939215093 -0.02138956087179309 -0.2024812155361881 -0.03739564466050471 -0.06995058350155314 -0.004995849104038999 0.01210248059044662 -0.3426829195389137 -0.5589221116062491 
0.01287294630219321 0 0 0 0 0 0 0 0 0 0 0 0 0 0 0 0 0 0.1437404204732987 0 
0 0 0 0 0 0 0 0 0 0 0 0 0 0 0 0 0 0.03586221227284339 -0.04194222040905551 0 
0 0 0 0 0.2722486326652356 0 0 0 0 0 0 0 0.04883209993222352 0 0 0 0 0.06736981864559348 0.002136741576872435 0 
0 0 0 0 0 0 0 0 0 0 0 0 0 0 0 0 0 0.1639628431398236 0.003581385292827118 0 
0 0 0 0 0 0 0.04873323923552141 0 0 0 0 0 0 0 0 0 0 -0.002871851938867765 0.4409660662304243 0 
-0.0731208917059856 -0.1678653772350365 -0.01147496068675498 -0.1095641343216449 0.0214304240318731 0.005243695798798858 -0.05167998794404449 -0.1734443191132114 -0.153231137239156 -0.3566583868591058 -0.3148834266198562 -0.3755893747136421 -0.4882102508872146 -0.3002396256197702 -0.07343817422178806 -0.2231141270566687 -0.06047381587388152 -0.009711123564745574 -0.05601192124256646 -0.1468422260813234 
-0.3282669993690128 0 -0.2219073991919611 -0.4568005865685862 -0.6764541219514643 -0.5985251655027551 -0.2190671684002289 -0.2844957954254335 -0.6081827686804411 -0.1458599056388151 -0.629699556234295 -0.4633889005404211 -0.2301871578139176 -0.2953303839994262 -0.1347518046043382 -0.3150619128061784 -0.4619823260213525 0.005720370202406864 -0.0163506809147701 -0.2384235769158519 
0 0 0 0 0 0 0 0 0 0 0 0 0 0 0 0 0 0.00316779729912635 0.09533961278622954 0 
-0.3918074196025778 -0.1479673387487315 -0.2262117040768998 -0.1981048973870667 -0.267696689693383 -0.1644334516411251 -0.03885231400928694 -0.3715050864066576 -0.1330632275755039 -0.4100756166667666 -0.1082400142649512 -0.04745427914984651 -0.140746110951159 -0.1608197576520302 -0.06202623028670988 -0.1957124472731434 -0.1943911335136155 -0.2796875265163955 0.0166791279441912 -0.2897459995085634 
0 0 0 0 0 0 0 0 0 0 0 0 0 0 0 0 0 0 0.03245266923823634 0 
0 0 0 0 0 0 0 0 0 0 0 0 0 0 0 0 0 0 0.1048162240772311 0 
0 0 0 0 0 0 0 0 0 0 0 0 0 0 0 0 0 0.3977806918024672 0.003103290517780926 0 
0 0 0 0 0 0 0 0 0 0 0 0 0 0 0 0 0 0 0.04591566828266589 0 
0.1612239590940529 -0.255925901022079 -0.03955962880626133 -0.2420613342015824 0.2242715650189079 -0.08862597868949347 -0.1425929088530719 0 -0.08657589468848029 -0.3500606762994314 -0.1560152829161961 -0.1354338729180755 0 0 -0.1600231532948176 -0.06051428891772811 -0.06846254706312259 0.001030364065727822 -0.0480761391716358 -0.07878879696382687 
-0.1750962956840927 0 -0.019330261022259 0 0 -0.1029050853924736 0 0 0 0 0 0 -0.09860328681794603 -0.08780524897225905 0 -0.1591537003923165 0 -0.007081320797465448 0.07492827793451522 0 
0 0 0 0 0 0 0 0 0 0 0 0 0 0 0 0 0 -0.007171800014225935 0.06517841079186136 0 
0 0 0 0 0 0 -0.1246983606172486 0 0 0 0 0 0 0 0 0 0 0 0.1386653136477428 0 
-0.05904564329493511 0 -0.02515738863450195 0 -0.5529154944664313 0 -0.2598486192054347 -0.3064139056318442 -0.2859016617991121 0.102338966992766 -0.0340938086174401 -0.1003707893240393 -0.1081267779325749 -0.03429668725731191 -0.3932881711019086 -0.1421280759097445 -0.2741505527004341 -0.04126124679593816 0.05842941083351342 0 
0 0 0 0 0 0 0 0 0 0 0 0 0 0 0 0 0 0.1023135634271814 0.007403023518655274 0 
-0.02446344865336688 -0.1883251295356378 -0.02977610776167381 0 -0.1950211794514577 -0.2531051820278967 -0.06945329933774416 -0.1247585979399094 -0.07654333080229317 -0.224003382406687 0 -0.2043664422273286 0 -0.03658266951766246 0 -0.1732812706302497 -0.1147937334548166 -0.1643844549669694 -0.1115005664861488 -0.02741751303778073 
0 0 0 0 0 0 0 0 0 0 0 0 0 0 0 0 0 0.00544507306516021 0.004732722128258194 0 
0 0 0 0 0 0 0 0 0 0 0 0 0 0 0 0 0 0.0008242624184747438 0.02384590460277104 0 
0 0 0 0 0 0 0 0 0 0 0 0 0 0 0.0006230399781020743 0.02807891857797292 0.05064495325696521 0.04696295066607518 0.0620651640800709 0.1143258250155828 
-0.07894188707028642 -0.2728748830816672 -0.2120885811624158 -0.3191179245431949 -0.3581770308043022 -0.008516003480767715 -0.1747862428071387 -0.1262865659303778 -0.1302395714690052 -0.2800799388629057 -0.1791746518113629 -0.1764358935696761 -0.1750492106987508 -0.1005344476636464 0.02323227206452093 0.02335303594788486 0.001014439195976601 0.005592701623195374 0.01549841692609688 0 
-0.224861903016061 0 -0.05705668514560967 -0.01079949969084643 0 -0.06973812563371616 0.06733554497890759 -0.002217179105867103 0.01736088387139121 0 -0.1859360977247823 0 -0.002827432145005005 0 0.08245444297111941 -0.03743618274371949 0 -0.006141812643831762 0.003683675336879974 0 
0.1249094132968945 0 0 0 0 0 0 0 0 0 0 0 0 0 0 0 0 -0.1337278832218561 0.0001990058489083759 0 
-0.1859453141481987 -0.08164974475968563 -0.1187967816879485 -0.3907923943664103 -0.1921729742121973 0.1656601652433827 -0.1155119044154514 -0.6328366937860483 -0.2054735433504049 -0.04845146773296229 -0.04888905979474088 -0.0006079030256221769 -0.4380632541556585 -0.3738165684466263 0.1973340211751726 -0.1510982091393161 0 -0.06116884675358174 0.005986291172923572 -0.05806406403964062 
0 -0.0175953925097889 0 0 0 0 -0.07589915652736839 0 0 0 0 0 0 0 -0.02968617306498265 0 -0.03022651891838498 0.00371478205256858 0.02475617677308992 0 
0 0 0 0 0 0 0 0 0 0 0 0 0 0 0 0 0 -0.001034164238346186 0 0 
0.7626766848005083 0 0 0 0 0 0 0 0 0 0 0 0 0 0 0 0 0.266565515328175 0 0 
0 0 0 0 0 0 0.2066013547163873 0 0 0 0 0 0 0 0 -0.005771506690213312 0 -0.01912621165106517 -0.00611266540600182 0 
-0.04313540666904517 0 -0.1599898915137951 -0.1991809755651842 0 0 -0.1437358500012791 -0.2559178805308391 0.08024033912012736 0 0 -0.2004083548370197 0 0 0.0672984857542397 0 0.05407679444491809 0.04851852863798222 -0.01084466526265812 -0.381800281801903 
0 0 0 0 0 0.09566400297190697 0 0 0 0 0 0 0 0 0 0 0 0 0.0554338075305519 0 
0.3893272527863038 0 0 0 0 0 0 0 0 0 0 0 0 0 0 0 0 -0.4207339693439424 0 0 
0 0 0 0 0 0 -0.1839714308157932 0 0 0 0 -0.1099431023229196 0 0 0 0.1317233598534339 0 -0.1916814638294646 0 0 
0 0 0 0 0 0 0 0 0 0 0 0 0 0 0 0 0 0 -0.1260021236734158 0 
0 0 0 0 0 0 0 0 0 0 0 0 0 0 0.009696210373038527 0 0 0.00102325940251053 -0.004453259917851443 0 
0.002882124400653479 0 0 0 0 0 0 0 0 0 0 0 -0.06335825330306832 0 0.01036459232571651 0.02647686831878278 0.1273032186184171 0.001974300219026224 0.007248623277995868 0 
-0.0190005256269147 -0.164800093969357 -0.04406962396093626 -0.1268767338501279 -0.03274845999936851 -0.02136345537904043 -0.1169594045577861 0 -0.1354842881113764 -0.169756980996898 -0.0410649276332402 -0.002209748914059377 0.06430295179645878 -0.1184597797003563 -0.01892646416557641 0.0207542362492751 -0.01454704682278857 -0.009466258016113921 -0.09735698012562663 0 
0 0 0 0 0 0 0.09699579899645622 0 0 0 0 0 0 0 0 0 0 0 -0.1480867766466592 0 
-0.06452307134267876 -0.04760658788143615 0 0.03524494954782163 -0.1195346219395512 -0.04230263973993359 0.03116311915731723 -0.2595413732135023 0 -0.02908971167490906 0.0816762534732051 0.001802677015868945 -0.04961835229993235 -0.004846466552893411 -0.1973560931964516 0 -0.1224182762154419 0.009198298853736776 -0.0213126971980801 0 
-0.1327880621145546 0 -0.1174601967453209 0 0 0.1452398143015305 0 0 0.002505794151083179 0 0 -0.1088501446855128 0 0 0.06123038571205938 0 -0.001808726873435624 0.09127986680960923 0 0.3707234042887686 
0 0 0 0 0 0 0 0 0 0 0 0 0 0 0 0 0 0 -0.02477207956115499 0 
0.06525008610032579 0 0 0 0 0.04551509319834225 -0.04979784846168294 0 -0.07972238855461879 -0.0362029307967178 0 0 -0.07494814402157167 -0.06199412470635494 -0.05339337812760462 0.06169609280131075 -0.1704930183607783 -0.1305657639781706 -0.1410464024580109 0 
0 0 0 0 0 0 0 0 0 0 0 0 0 0 0 0 0 0.03599908852011304 0.08679013890680998 0 
-0.0720611497297354 0 0 0 0.004764364288011247 0 0 0 0 0 0 0 0 0 0.1504517256883008 0 0 -0.02161332795290271 -0.0005651887223029184 0 
0 0 0 0 0 0 0 0 0 0 0 0 0 0 0 0 0 0 -0.00759140086531484 0 
0.09427400535802231 0 0 0 0 0 -0.2321289952779624 0 0 0 0 0 0 0 0 0 0 -0.04592540752796171 -0.01643105475421219 0 
0 0 0 0 0 0 0 0 0 0 0 0 0 0 0 0 0 -0.02046287097763714 -0.09967104030843257 0 
0.05978403275378645 0 0 0 0 0.0016734186871877 0.02482038107445079 0 0 0 0.2063962543818561 0 0 0 0 0 0.05841191211515463 0.07928747735888006 0 0 
0 0 0 0 0 0 -0.1054129643027419 0 0 0 0 0 0 0 0 -0.05658658770840345 0 0 -0.08369926850230081 0 
0 -0.02843446185022719 -0.5127441332279653 -0.2815443721037829 0 -0.002893572112272555 0.2766358260738616 0 0 -0.2643541731717116 -0.07638237470045135 0 -0.0141365684718594 0 0 0 -0.01067177345871564 -0.01496211967033557 -0.03809972190196306 0 
0 0 0 0 0 0 0 0 0 0 0 0 0 0 0 -0.006389190933643957 0 -0.04722516565153477 0 0 
0 0 0 0 0 0 0 0 0 0 0 0 0 0 0 0 0 0 0 0 
-0.171228737000785 -0.2982315665366074 0 0 -0.02680409929698569 -0.1277885367865905 -0.1089053374498516 0 -0.308888627898144 -0.3964946507529094 -0.2434719948823435 -0.1045240117612506 -0.3628262079745992 -0.3967386406194314 0 -0.1703781220993499 -0.04223899385743889 0.002173796205843402 -0.02081455598920585 -0.5342055088640514 
0 0 0 0 0 0 0 0 0 0 0 0 0 0 0 0 0 0 0 0 
0 0 0 0 0 0 0 0 0 0 0 0 0 0 0 0 0 -0.04299008457109144 0.5311643163122484 0 
-0.06002430719297961 -0.0370607968982988 -0.1727464902066664 -0.0581083102416482 -0.1371653901624178 -0.09416924077490905 0.00296984412215827 -0.08343695802209974 -0.04186752241471009 -0.1871929635731011 -0.1141722088953336 -0.07166112486368714 -0.03453990903237027 -0.01360617885299578 -0.01936947894309573 -0.04214226017353735 -0.02011964695666126 0.004362436150498285 -0.01361498853463749 -0.2782228717068386 
0 0 0 0 0 0 0 0 0 0 0 0 0 0 0 0 0 0 0 0 
0.009816677636565067 -0.07191641486836872 0 -0.2364768225025479 -0.2269047936158972 0.02095721018066113 -0.01853904567833148 -0.001291994572219866 0.08442469974493626 -0.1478528572070315 -0.0005940416097234301 0.006977670520392025 0.03388156896191945 0.02811573184875078 0.0004093928906440385 0 -0.01274969744104145 0.02244693040013222 0.02144689643179099 -0.3288054114265259 
0 -0.368245721962894 0 0 0 0 0 0 0 0 0 0 0 0 0 0 0 -0.08979511358994358 0.4535966607367372 0 
-0.04619107991945123 -0.008648490633208548 0 -0.02745196087914535 -0.04243925007650659 0 -0.1004541139321009 0 0 -0.2685814259282205 -0.02848641275468339 0 -0.06747522022820221 0.04491021742773282 -0.6257176222678669 -0.01638840077744459 0 -0.003894466059688497 -0.01226916582464557 -0.09963686643446179 
0 0 0 0 0 0 0 0 0 0 0 0 0 0 0 0 0 -0.01357331636749152 0 0 
0 0 0 0 0 0 0 0 0 0 0 0 0 0 0 0 0 0 0 0 
0 0 0 0 0 0 0 0 0 0 0 0 0 0 0 0 0 -0.03742323872970658 0 0 
0 0 0 0 0 0 0 0 0 0 0 0 0 0 0 0 0 -0.06063267614846372 0.1412237059447985 0 
0 0 0 0 0 0 0 0 0 0 0 0 0 0 0 0 0 0 0 0 
0 0 0 0 0 0 0 0 0 0 0 0 0 0 0 0 0 0 0 0 
0 0 0 0 0.1467383758156469 0 -0.05888639569223258 0 0 0 0 0.04802646635428785 0 0 0 -0.02995423779344605 0 0 0 0 
0 0 0 0 0 -0.04001442383947904 -0.08035143674344196 0 0.1584971533574822 0 0 0.1367137552781197 0 0 0 0 0.0141367913272277 -0.005813888014234195 -0.009279853319837354 0 
-0.1305889414365252 0 -0.01940368513482643 0.001594087862758672 -0.10102587897056 -0.2630524648960927 -0.01207813907690255 -0.4197969364116817 0 -0.1430189795893516 0.08593949836752104 -0.07259457525121094 0.007983598892577179 -0.1297703620520541 -0.003046654956176565 -0.01257231222623604 0 0 0.0606151802990979 0 
0 0 0 0 0 0 0 0 0 0 0 0 0 0 0 0 0 0.03999697090432144 0.04988721987558996 0 
0 0 0 0 0 0 0 0 0 0 0 0 0 0 0 0 0 0.007988939117923706 0.2585267843178759 0 
-0.2770894147547761 -0.07265152326707293 -0.4758976384503165 -0.6377647795359609 -0.4478891435711108 -0.4541417313998591 -0.05038702551360754 -0.4850191481114708 -0.4224098990037872 -0.1480910326887931 -0.3589608581274084 -0.07853258538277014 -0.07243493500698392 0 -0.215561711048875 -0.4938733719913803 -0.5085320642100157 -0.2163342573836277 -0.1318989969218499 -0.4745095466937966 
0 0 0 0 0 0 0 0 0 0 0 0 0 0 -0.4263001215468338 0 0 0.04948142142654924 0.038178224079896 0 
-0.008124757145729428 0.04314552155213786 -0.5119938240969432 0.4401114883163066 -0.382190197227997 -0.000575001191677803 -0.2159142189579952 -0.0633001959875682 -0.06764320985417377 -0.3413389789919949 -0.1760132839419572 -0.2264148299806284 -0.2445459083555987 -0.1869974977135837 -0.5904765436419801 -0.2351884066408872 -0.2830973229526355 -0.1682588800164065 -0.04102651833708578 -0.4123185922663258 
-0.3494148728525724 0 0 -0.4366048515616507 -0.1010547621926661 0 -0.4265493780586712 -0.1819145941020883 0 0 0 0 0 0 -0.05579220904231057 -0.2797596715769073 0 -0.1813163690785962 0.08898765013449761 -0.1115190901468405 
0.09796060198850043 0 0 -0.02214777880156166 -0.2808184271473864 -0.2454253462112284 -0.1061230192922594 -0.2997693551248833 0.4257603779255728 0 0 -0.003783897928150029 -0.2476424482145823 -0.3431615907477299 -0.2536151881056671 -0.263014163378642 0 0.007861792144557265 0.07115127786947945 -0.05243314533972841 
0 0 -0.2431600164439577 0.8667446956858229 0 0 0 0 0 0 0 0 0 0 0 0 0 0 0 0 
-0.04523592993706518 0 0 -0.005655997184021291 -0.00434835924469815 0.022427306948683 -0.05592530660062184 -0.3714025583044216 0 0 -0.08590662511218224 -0.1009238270895124 0 0 0.1513833605262708 0 0.02994593933723751 0.01501766832068188 0 0 
-0.01908360036911045 0 0 0 0 0 0 0 0 0 0 0 0 0 0.02965096509196302 0 0 0.01569746893458529 0.01733849198930607 0 
0 0 0 0 0 0 -0.1955879244588744 0.02579049599427645 -0.03192491924380104 0 0 -0.1585718290468283 0 0 -0.08247111323163916 0 0 0 0.006851886040447594 0.2564084084057204 
0 0 -0.04366576673517517 0 0 0 -0.2042361611893905 -0.002679259545506181 -0.07528470182532976 0 0 0 -0.0003735419541140201 0 -0.05956158774734435 0 0 0.01291269710593462 -0.008939615222519336 -0.0466378400827387 
-0.1166521590115785 0 0 0 0 0 0 0 0 0 0 0 0 0 0 0 0 0.001557570182257684 0.00609184623405053 0 
-0.05055600613903652 0 0 0.3254136862180969 0 0 0 0 0 0 0 0 0 0 0.006543290996558712 0 0 0 -0.07376699659705112 0 
0 0 0 0 0 0 0.05886728595248703 0 0 0 0 0 0 0 0 0 0 0 -0.05217844817535115 0 
0 0 0 0 0 0 0 0 0 0 0 0 0 0 0 0 0 0.2377870865309654 0 0 
-0.02617855940892585 0.2785160843619135 0 -0.1744348710609737 -0.4314197983752605 -0.05409807467205847 -0.468952334497233 0 0 -0.03397611823209624 0 -0.358260233807248 0 -0.3128880508842857 0 0 -0.3874123983069919 -0.1191416414319559 -0.04172257617811284 0 
0 0 0 0 0 0 0 0 0 0 0 0 0 0 0 0 0 0 0 0 
-0.03659958315041568 -0.01809192369803455 0.04097360558242227 0.01585870377849074 -0.01474007735332843 0.04628912167730078 -0.07287284307964435 -0.06478881210987729 -0.005017008050358931 -0.03807347731766016 -0.1137511471277582 -0.1129468311914612 -0.4654697839848558 -0.06056945411327877 -0.1174803359334049 -0.2047365510534273 -0.1364993304978476 -0.02734932226060104 -0.03448421895203796 -0.4743836031725622 
0.0585245878676716 -0.201347020891198 0 -0.4739206459437356 -0.4935366547761788 -0.464494895827911 -0.02864650692812738 -0.2268007787617728 -0.05487071518682059 -0.8420796146538239 -0.4038844797305797 0 -0.1636067146968223 -0.3970468980989322 -0.0002703802914068662 0 0 0.03676388038448336 -0.0168394624148352 -0.06340119463932162 
-0.0225641273413597 0 0 0 0 0 -0.0221959845325203 0 0 0 0 0 0 0 0 0.0673507386101973 0 0 0.04419106748317031 0 
0 0 0 0 0 0 0 0 0.06245071329754276 0 0.4462132138731671 0 0 0 0 0 0 -0.178929810441403 0.06118461287487143 0 
0 0 0 0 0 0.1319930611485282 -0.2293880278095245 0 0 0 0 0.003167148018763034 0.06229274469911128 -0.007303061279581691 -0.02721403724640964 0.047582896347193 0.05410871712786047 0.06717452870703523 0.05062607404936122 0 
-0.08176079555227955 0 -0.1043522731558036 0 -0.08942687917664721 -0.001804173618341076 -0.03415251894855092 -0.1463761246547476 -0.361611488845783 -0.2149057914505542 -0.1882952829889174 -0.08871748744797815 0 -0.006566788990054094 -0.1059860915923042 0 -0.1295370160209718 0.0186788707940658 -0.03433565120513626 0 
-0.08007670032570828 -0.03513127611643073 0.0218108807101765 0.09732758666266568 -0.2178671412901587 -0.08895691334610167 -0.00410918259178627 0.1203228071653765 -0.1356578345836489 -0.07784972661886667 -0.2038307261896638 -0.06671087972188132 0 -0.105485837986823 -0.03195944994622216 -0.358625751810676 -0.09698333839562609 -0.03243006019280592 -0.1577543013206106 -0.2005793472541827 
-0.04788417419003434 -0.05225333726963301 -0.160456049703056 -0.1486099599843122 -0.3456529287387307 -0.2366371598234752 -0.01227502298505519 -0.06143811352448298 -0.2836652397870454 -0.08586508083293426 -0.1010270936548941 -0.1577128107670555 -0.1514906416412774 -0.1066995963639622 -0.1768863748771887 -0.157340812069083 -0.2439661168770174 -0.01794326849881544 -0.02937710892694483 -0.2109746197780409 
0 0 0 0 0 0 0 0 0 0 0 0 0 0 0 0 0 0 0 0 
0 0 0 0 0 0 0 0 0 -0.0194780468344146 0 -0.0619232897590537 0 0 0 0 0 0 0 0 
-0.2921798042199971 0 0 0 0 0 -0.1786638569762583 0 0 0 0 0 0 0 0 0 0 0 0 0 
0 0 0 0 0 0 0 0 0 0 0 0 0 0 0 0 0 0 0 0 
0 0 0.02884741531434871 0 0 0 0.2041903554966065 0 0 0 0 0 0 0 0 0 0 0 0 0 
-0.08930161824622175 0 0 -0.2552761114973893 0 0 -0.3632289929778167 0 0 0 0 0 0 0 0.08619492463546477 0 -0.1579671644022981 -0.03700326721596498 0.01693958153603257 0 
0 0 0 0 0 0 0.1262524304899005 0 0 0 0 0 0 0 0 0 0 0 0 0 
0 0 0 0 -0.2618421775171422 -0.2097595919838276 -0.004498252851314957 -0.03684688237556439 0 -0.2018744944061441 -0.3500617677215174 -0.1387569250679699 0 -0.005634811051312563 0 0 0 -0.03635926026430102 0.01276328172590476 -0.3413769217937613 
-0.2584480159486697 0 0 0 0 0 0 0 0 0 0 -0.005422543865168374 0 0 0 0 0.08177803962425834 0.02869444175657412 0.02863635357224918 0.120712311882732 
0.07061803565210288 0.01816762473529396 0 -0.01193316990177144 -0.2459378933899986 -0.1556852015091833 -0.01310029844859832 -0.02995193129824048 0 0 0 -0.1249984417854334 -0.1624149010817178 -0.0587452150916267 0 -0.1075342598071695 0 0.01816833929327161 0.04804381951436928 0 
-0.005702345398703165 0 -0.0580605081918663 0 0.1836338039808376 0 0.1344220690424229 0 0 -0.0592080870635766 -0.03050161025062809 -0.07791351674178555 -0.06563910931974561 0 -0.1858701055636099 -0.1881826563481321 -0.02832214494331118 -0.07402228603591776 -0.2396081034860281 0 
0 0 0 0 0 -0.1506160824237746 0 -0.01911291345961599 0 -0.1043345614780304 0 0 0 0 0 0 0 -0.08358042659931239 -0.05801789044317764 0 
-0.1932152461342115 -0.4051333298942925 -0.1004593663971289 0 0.007566208766552492 0.1082414876023849 0.05520694873821461 -0.01612889500860329 0.06973527372495068 -0.1500173875681763 -0.140331115412308 -0.08673645632870892 -0.111950125554875 -0.146155992002816 0 -0.03858732922394022 -0.07566936263868185 -0.03274448112703806 -0.02561671664987045 0.02467146505099129 
-0.07802587831444613 0.1843938201022593 0 -0.03797229208060075 0 0 -0.03716665499904194 0.4008384584086589 -0.01588535106818152 -0.2541523092854835 -0.17736279535052 -0.2023639049171205 -0.4797218072212798 -0.1976553937356521 0 -0.2489472291356965 -0.080392646539685 -0.01959239406755466 0.06420485178450464 -0.1338723461998958 
-0.03906196162351824 -0.1442205880328354 -0.2702905893612597 0 0 0 -0.2000366261252139 -0.2201842276710814 -0.1809290218658573 0 -0.6953761291169817 -0.1288886954750338 0 0 -0.003445269113326931 0 0.06944428284971729 0 0.00695014341417005 0.1483907049183711 
0.03407726462076196 -0.5072852208900382 0 0 -0.2220320388169504 0 -0.09751340532357264 -0.3472576657421736 -0.01822317662092346 0 0.07512753550002339 -0.1988637935866742 -0.02843710261600542 -0.1097504127258427 0 0.04902432373187828 0 -0.02254644339167398 0.02404453711649794 -0.1126851038171187 
-0.06168613543656742 0.01821086233384758 -0.0343671757377855 -0.1577290032035027 0.01240242284441962 -0.2055281402361763 -0.1418180202240572 -0.2039295383370702 -0.1960847543367918 -0.4073618865181383 0 0 -0.3291927135280637 -0.1967074236656388 -0.09150634521906265 0 -0.1108297637470115 -0.014994096826277 0.005994574949208462 -0.005381329272823984 
0.1641155426481147 0 0 0 0 0 -0.02235725602980359 0 0.2786987451371906 0 0.01708151101085204 0 0 0 0.1792409124475649 -0.00596243678315314 0.1119947891828688 0.03972700684888355 0.05172029897265721 0 
0 0 0 0 0 0 0 0 0 0 0 0 0 0 0 0 0 0 0 0 
0 0 0 0 0 0 -0.06712591025554002 0 0 0 0 0 0 0 -0.00202743356645017 -0.09058378865996859 0 -0.007072265709393539 -0.05069365741243771 0 
0 0 0 0 0 0 0 0 0 0 0 0 0 0 0.1089990523938972 -0.1155383589814712 0.1431158721448406 0 0.09467538384686189 0 
0 0 0 0 0 0 0 0 0 0 0 0 0 0 -0.5292976306866721 0 0 0.0868587561074782 0 0 
0 0 0 0 0 0 0 0 0 0 0 0 0 0 0 0 0 0.4047257100617891 0 0 
0 0 -0.08547571062436281 0 0 0 0 -0.06251141347734242 0 0 0 0 0 -0.01334389197468995 0 0 0.000820144505056037 0.02453723004815046 0.01255540271454645 -0.06917546390973379 
0 0 -0.3000653030309191 0.1037401621533075 0 0 -0.02588110283274248 0 0 0 0 0 0 0 0 0 0 -0.07935880639939362 0 0 
0 0 0 0 0 0 0 0 0 0 0 0 0 0 0 0 0 0 -0.02170074738464042 0 
-0.02411869922985789 0 0 0 0 0 0 0 0 0 0 0 0 0 0.0401031426457461 0 0.002219689251202618 0.1363369663252145 0 0 
-0.005740875283683671 0.3121396950410327 0 0 0 0 0 0 0 0 -0.04337624671120773 0 0 0 0 0 0 -0.05698756670467221 0 0 
0 -0.04251241781662139 0.2306214866910414 0 0 0.03175057544120324 -0.135352945188026 0 0 -0.2126112790255422 0 0 -0.1626151197785218 -0.109347952162401 0 0 -0.09686690198547658 0.04167484003104355 -0.05822713133852583 0.02153410765621441 
0 0.05089113122776351 0 0 0 0 0 0 0 0 0 0 0 0 0 0 0 0 -0.5633063482623808 0 
0.07825765697084411 0 -0.2381767369266702 -0.6807983320321147 0 0 -0.3456910069582091 0.07624056895679401 0 0.5575053964030013 0 0 -0.4356423293898912 0 -0.1424656076044699 0 0 -0.01320786038326252 0 0 
0 0 0 0 0 0 0 0 0 0 0 0 0 0 0 0 0 0 0 0 
0 0 0 0 0 0 0 0 0 0 0 0 0 0 0 0 0 0 0 0 
0.1877309516808305 0 0 0 0 0 -0.1026716122790671 0 0 0 0 0 0 0 -0.2867266110377488 -0.1784536259363768 0.05128278012647631 0.04339298713268375 0 0 
-0.1191398100638929 0 -0.09371560436095769 0 0 0 0 0 0 0 0 0 0 0 0 -0.00771487232215196 0 -0.00790717765200873 0 0 
-0.1296652823659155 0 0 -0.002987115493886369 0 -0.03852125141368924 -0.2271553840605629 0 0 0 -0.1845722357931089 0 0 -0.1276443284139216 0 -0.2970179312746924 -0.05157931381911962 -0.02251369072760458 0 0 
0 0 0 0 0 0 0 0.09382490763930768 0 0.01459010391337335 0 0 0.2914712052593024 0 0.001300266434620753 0.2142545377621516 0.003031446189232313 0 0 0 
0 0 0 0 0 0 0 0 0 0 0 0 0 0 0 0 0 0 0 0 
-0.1593291222288133 0 0 0 0.1470179681103462 0 -0.02380231228593125 0 0 0.2861216240505366 0 0 0 0 0 0 0 0 0.08544484698734059 0 
0.1338454580381171 0.06840396378642589 0 0 0.00181021122442431 0.0717349949268578 0.009945887196555958 0.341753998789703 -0.04641797561201784 0 0 0 0 0 0.07458967195416544 0.08072251874376175 0 -0.04276925683745339 -0.01284471907254241 0 
-0.1447155768958105 0 0 -0.7043508598039342 -0.2301911916114942 -0.1123810286302522 -0.1136136327364918 0 0 -0.3290546053547589 0 -0.4014027853431794 0 0 -0.1367340902673001 -0.1334900493462026 0.01898819563636067 -0.02222378319520259 0 -0.1276466175874672 
0 0 0 0 -0.1491657438488176 0 -0.03035995106555282 0 -0.2139291645670264 0 0 0 0 0 -0.04030819271632808 0 -0.06898226209024037 0.003342232860774415 0.07288234988457877 0.09219897669360361 
-0.05137685486901769 -0.2347777069121972 -0.02381591862723512 -0.09483206468739994 -0.1238540341383531 -0.1549417923956414 0 -0.05846383131658381 -0.09455012142349568 -0.4692462919914256 0 -0.1103164509942523 -0.1875910366073119 -0.1714200629313245 -0.05936332346543878 -0.1026866060962509 -0.05246669867814109 -0.05897305099256984 -0.00150572158315537 0.05502902874688598 
-0.04441346188044736 -0.06103022529492273 0 0 0 0 -0.09659261204229407 0 0 0 0 0 0 0 0.04415959740858124 -0.1210385042499986 0 -0.07439939258147756 -0.03782251957383416 -0.04566008106359601 
-0.05902273276687078 -0.3432217829370299 -0.1367929683246295 -0.165231116516649 -0.2940349815054906 -0.2224835906799357 -0.134561492677109 -0.2778639982728441 -0.2603877693816469 0.08628319716218606 -0.09118071019644255 -0.1454763447650422 -0.08101632814743782 0 -0.159512499677458 -0.041801262737248 -0.116474330240365 -0.01969737225150761 -0.1475632440099453 -0.04815227855277871 
-0.06488772847510678 0 -0.1315659243123639 0.005627039744831213 0 0 -0.03064543637310331 0 0 0 -0.09172034501808457 0 0.07405441308253057 0 0 -0.05190188339499872 -0.02246324529699577 0.0141103400904329 0.04732978951697499 0 
0 0 0 0 0 0 0.01593708632467823 0 0 0 0 0 0 0 0.2340589319166941 0 0 0 0 0 
-0.04389749616390858 -0.09472330269354418 0 -0.01708637569637723 0.1793729775688304 -0.2361175041826169 -0.001279636355483477 0.007046265965251364 -0.2181465330525201 -0.1436414806689359 -0.07648633850448093 0 0.07171301777786933 -0.113593292558762 -0.03571952118212442 0 -0.1821376083218585 -0.02199559440572782 -0.1958131823287857 0 
0 -0.1919057440118371 0.09780874114164051 -0.01243816121050816 -0.11000168176362 0 0 -0.0631022775890891 0 -0.1466212341061347 -0.1045509940843516 -0.01605875466892415 -0.1255088805079679 0 -0.0003519025854026876 -0.08607883140836486 -0.113007190854367 -0.03307920347000442 -0.05376211635337366 -0.2070090392017915 
0 0 0 0 0 0 -0.06723439908608969 0 0 0 0 0.0570322027432297 0 0 0 0 0 0.002580004742529488 0.02914002237492648 0 
-0.2024302739230976 0 0 0 0 -0.1511832229128893 0 0 0 0 0 0 0 0 0.1164605939309886 0 -0.1423730768692043 -0.007595683180353524 -0.0511959390439766 -0.05574003990969364 
-0.1100001191313267 -0.3039358763321452 0 0 0 0 -0.06511254728396521 0.0007106097503437731 0 -0.02991956448192267 0 -0.2154318510217917 0 -0.03823907639726736 0 0 0.001144173384880642 0.1258669431330109 0.0003935083309184163 0 
-0.01729598747465797 -0.06564265431854324 -0.1272524140940209 -0.1029136079186768 -0.1496879051138707 -0.2411969125924995 -0.03042629771090644 -0.2321284262779158 -0.3657637235312617 -0.2150442163064885 -0.2185485376606081 -0.103518276944322 -0.3815220994180663 -0.01149593854659904 -0.131258577661719 -0.294894212493002 0.03717663192756463 -0.07698107571522286 -0.05794231532161966 -0.1712425655504857 
0 0.1959152927821119 0 0 0 0 -0.01841886963944861 0 0 0 0 0 0 0 0 0 0 -0.1404996560755055 0.01229722102548184 0 
0.1586029222869099 0 -0.2462716600793587 -0.003427750891405749 0 -0.1106161874199469 -0.06605746532548974 0 0 0.04777197928922158 0 0.1860541985790631 0 0 0.06472261602660957 -0.124990700773474 0 -0.03952734841618621 0.002912594915071619 0 
-0.1861067213166787 0 -0.1317613042616433 0 -8.481585184621848e-05 -0.4087901678339752 -0.3304026013013135 -0.1770977790916883 -0.004449352736738193 0.2063727927742866 0 0 -0.218919110898201 -0.1083549040233163 0.07047919698963398 -0.04710739702862168 -0.094889747573115 0.01380564630737169 -0.006601618887455961 -0.1037251742156678 
0.1161716344914542 0 0.1688367451957609 0 0.009442293289555079 -0.09121068899723078 -0.02379902691750875 -0.01837435874630785 -0.01200567045864074 -0.07548497513442885 -0.2316749805015662 -0.1000057058186044 -0.1249222322456833 -0.002266618847355364 0 0 -0.09684578929049879 -0.1199603578368123 0 -0.01681875184352478 
0 0 0 0 0 0 0 0 0 0 0 0 0 0 0 0 0 0 0.01341847611648242 0 
-0.07106473929226192 0 0 0.03408967855531095 0 0 0 0 0 0 0 0 0 0 0 0 0 0.004956160937703937 0 0 
-0.2376080976984615 -0.548953881004598 -0.4784466576456605 -0.1617349536032525 -0.1548621479054274 -0.1422964581433675 -0.06661340620159868 -0.01106681001245523 0 -0.4204925822197518 -0.4691112051538714 -0.05948134677152311 -0.08244333929748873 0 0 0.1539946339097731 -0.3454622182085923 -0.0090193601163543 0.02543603433274373 -0.6550125318371248 
-0.4640001148342569 -0.1196003160629269 -0.4400132636691967 -0.3644183311071506 -0.2636601081431974 0.112559538997171 -0.3870486247576309 -0.4363086351786426 -0.4940039548872746 -0.5245633122000188 -0.2996712518531357 -0.3931758958355136 -0.4912560386632256 -0.2859353477611252 0.1296281680118112 0 0.02133988639548095 -0.01463229816840667 -0.0686814703926418 -0.5884172984697247 
-0.03506256555687384 -0.1780391143990613 0 -0.2993530929352891 0 0 -0.3719816348643785 0 0 0 -0.07632739268029123 -0.05607768495639942 -0.2445841697475752 -0.3526447641666071 0.2197089256590519 -0.421761097635066 -0.007808307538551072 0.02749631341690944 0.02038414557635492 -0.4544358329748718 
0 0 0 0 0 0 -0.06954841673188686 0 0 0 0 0 0 0 0 0 0 0.004159013036253957 0.09959034934866168 0 
0 0 0 0 0 0 0 0 0 0.06376552843449368 0 0 0 0 0.143541629200732 0 0 0.03380094416350081 0 0 
0 0 0 0 0 0 0 0 0 0 0 0.103042635713285 0 0 0 0 0 0.016887258912256 0.1477422461768933 0 
0.02675146637226928 -0.05477789228064933 0.050429034463637 -0.07206611185341881 -0.06692998875363912 -0.1356037551250773 0.02628607106324865 -0.168341879695707 -0.09906599478009565 -0.004054336375061063 -0.0005784742733896653 0.01009842187002547 -0.01006882166064332 -0.09564963487957377 0 0 -0.0181520847982354 0 -0.08406830152019695 0.157738961127482 
0 0 0 0 0 0 0 0 0.1093882311205275 -0.0107720268615924 0 0 0 0 0 0 0 0.01321850606635375 -0.01173332592665026 0 
0 0 0 0 -0.001352376842883363 -0.0128091550838559 0 -0.134112639686371 0 0 -0.01660284364927541 0 0 0 0 0 0 0.03585317477284152 0 0 
0 0 0 0 0 0 0 0 0 0 0 0 0 0 0 0 0 0.02965474927340281 -0.00449335268350649 0 
0 0 0 0 0 0 0 0 0 0 0 0 0 0 0 0 0 0.05049727977402094 0.04488143444876349 0 
-0.02514311193643109 0 0 0.1215400372018913 0 -0.03724028221362377 -0.1512758154396676 0 -0.206050359668403 -0.2590458678388903 0 0 -0.1202042725633161 0 0 -0.3283127708220521 0 0 0.06145654981068319 -0.1145478196435924 
-0.1872118359245975 0.1848470156379171 0 0.08826588531207703 0.1198893083487305 0 -0.07066444853823053 -0.2137048549414498 -0.184091750258844 0 0 -0.1684195907844675 -0.1670630554512227 -0.2318813188357829 -0.1486690947819983 0 -0.1889610182958291 0.003633667497809669 -0.04945288844490595 -0.0573710945814213 
-0.06949467448811247 -0.2669116264261314 0 -0.1964331331264829 -0.5246651327106064 -0.3639548177418379 -0.159310681240064 -0.1300092659732991 -0.06662823103775296 -0.02588300408124263 -0.24020936496383 -0.2289348007424983 -0.1332127245503779 -0.1080875228788436 -0.3764602164187767 -0.318200130737612 -0.3316215032577963 -0.1363462347030353 0.4427747497890669 -0.4175978927443934 
-0.01822798745582974 -0.1811952041218056 -0.1872035016593311 -0.2943046885925263 -0.2070875822686524 -0.1394173948777017 0 -0.1338638159013169 -0.3778970157478364 -0.07053610332192667 -0.4881654297029825 -0.1078332612608689 0.2552493852063987 -0.6652804369548581 0 -0.3108158851618559 -0.3113484764642039 -0.06247048907546266 0 -0.4497426377200228 
0 0 0 0 0 0 0 0 0 0 0 0 0 0 0 0 0.1006392777863178 0.1872534483885854 0.04051555226884931 0 
-0.1978052479916175 0 0 0 0 -0.03900733859754534 -0.03511355868194584 -0.02664725332861844 0.0384094856769772 0 0 0 0 -0.06024514732728 -0.2388519828405623 0 0.04365307087581671 -0.0006645112625550589 -0.0295373750221249 0 
-0.1415733599233853 0 0.1324181102069925 -0.2331044577768637 0 -0.1705073311862388 -0.1631599811574947 0 -0.2588098608207519 0 -0.06828367361072635 -0.1710604921343146 -0.1980114739387394 0 0 -0.02020815296298975 0.1670581456066028 -0.2655059337049889 0.101146116467154 0 
0 0 0 0 0 0 0 0 0 0 0 0 0 0 0 0 0 0 0 0 
0 0 0 0 0 0 0 0 0 0 0 0 0 0 0 0 0 0 0.3274999262035591 0 
0 0 0 0 0 0 0 0 0 0 0 0 0 0 0 0 0 0 0 0 
0 0 0 0 0 0 0 0 0 0 0 0 0 0 0 0 0 0 0 0 
-0.1785069210311909 0.006093541270665492 -0.1371961281905893 -0.06613761860134947 -0.1774052758680617 -0.1135380793406552 -0.1399583340306305 -0.1974292113288404 -0.2138740129597132 -0.08763518985282635 0 -0.01070940104953702 -0.1442841388624977 -0.06367019824819492 0 -0.1410337353853197 -0.03058285890240134 0.05051786810451311 -0.02241866821602869 0.1577815382058199 
-0.1108796257042752 -0.5001471125973446 -0.3176951967434846 -0.4435581203906047 -0.6186592719260077 -0.5179495867501729 -0.20022042797841 -0.371020670349236 -0.6844053937911346 -0.6426615438979724 -0.7421543327426766 -0.3417271529588005 -0.5993273558850626 -0.4030349230177523 -0.06619525504233674 -0.4321531472392597 -0.2040836490370495 -0.000808128112808122 0.007340299748254185 0.1121786678610415 
0.1616714866526728 0 0 0 0 0 -0.07844497346765567 0 0.430073979423561 0 0 0 -0.08576338865981291 0 0.005048396811918429 0.05452046065495007 0 0.1452897776834937 0 0 
0 0 0 0 0 -0.01757551902314684 0 0 -0.01818587427878473 0 0 -0.2089822594975885 0 0 0.07619800943333278 -0.1404357687532692 0 -0.01098293258887109 -0.005897255395081215 0 
0 -0.1532292852977314 -0.1273068126998418 -0.0927418873865183 -0.2847757718363917 -0.06126094560890972 -0.04260477535171283 -0.1481490676074625 -0.3372793580878315 -0.3591731592853591 -0.3164967703296221 -0.2260182993591795 -0.2490811281902938 -0.1257000677851235 -0.1392619042481684 0 -0.08286835758381961 0.00307459126272236 -0.00225068760960159 0 
0 0 0 0 0 0 0 0 0 0 0 0 0 0 0 -0.08330722523787763 0 0 0 0 
0 0 0 0 0 0 0 0 0 0 0 0 0 0 0 0 0 -0.1824131873516736 0.2318632763375706 0 
0 0 0 0 0 0 0 0 0 0 0.04306269356995244 0 0 0 0 0 0 -0.08743630076426936 -0.03318962058446148 0 
0 0 0 0 0 0 0 0 0 0 0 0 0 0 0 -0.1434629179980889 0 -0.1572867146822895 -0.02100045867952385 0.03456168376485747 
0 0 0 0 0 0 0 0 0 0 0 0 0 0 0 0 0 0 0 0 
0 0 0 0 0 0 0 0 0 0 0 0 0 0 0 0 0 0 0.08767401052164174 0 
0 0 0 0 0 0 0 0 0 0 0 0 0 0 0 0 0 0 0 0 
0 0 0 0 0 0 0 0 0 0 0 0 0 0 0 0 0 0 0 0 
-0.01861807820031403 -0.2538885233385224 0 -0.08121466666500138 0 0 -0.01820533783697792 0 0 0 0 -0.02736801351189547 -0.1305009374270243 -0.001199309778588447 -0.3468633693907359 -0.06646501696896966 0.03787323174185317 -0.02612824831033777 0.0006828820158701686 -0.131480198580729 
-0.06133921427332895 -0.04326667515226448 0 0.03056564693506545 0 -0.2018794708719627 -0.00229056255009989 -0.001992626074256491 0 0 0 0.09157933813165337 0.0004328762875462969 0 0 0 0 -0.3015800839529955 -0.009676150517078456 -0.3347973004062569 
0 0 0 0 0 0 0 0 0 0 0 0 0 0 0.04748580640348098 0 -0.0721871868592517 0 0 0 
-0.1858244172601863 -0.06120819460589719 -0.1453719486658965 -0.2256826569814682 0.05653058792205339 -0.5451571173430138 -0.2963115682998902 -0.06543420237390853 -0.7218681418195941 -0.3773256612586148 -0.2504822799602207 -0.254806588435638 -0.08896773639342907 -0.1571182473720996 -0.3284213482047786 -0.3556373019377976 -0.3815827628686222 0.0751392284380592 -0.01622868236760021 -1.23199807829686 
0.01315483306985176 0.1659945386343095 -0.2958961990205162 -0.1758591684396622 -0.01711871973039643 -0.09589380972310672 -0.168734984254776 -0.5345246344012444 -0.3499155766896875 -0.3397194036899447 -0.3720108415886588 -0.3486325208915539 -0.5545960910567387 -0.3623979225791558 -0.7528001349287037 -0.1759599074265092 -0.3524013099768074 -0.1752017420235361 -0.1566038784491333 -0.4552759817577285 
0 0 0.859874762232324 0 0 0 0 0 0 0 0 0 0 0 0 0 0 0 0.1055485345788979 0 
0 -0.3424532286952551 -0.02011674554420094 -0.1502398460151003 0 -0.2624108481522925 0 0.2149022466265937 -0.0749678503872257 -0.1054214072007817 -0.3964937254833408 0 -0.231609715010435 -0.01662092901347187 -0.0821882988797234 0 -0.1368346363807954 -0.09426409678881359 0.0106989150675819 -0.109937877239094 
0.00192228937112994 0 0 0 0 0 0 0 0 0 0 0 0 0 0 0 0 0 0 0 
-0.007899996753152855 -0.06834955230221035 -0.1065306748499203 0 -0.001990209826200388 0.004936256602624855 0.003600157298621663 -0.5845742854816554 -0.213505459843619 0 -0.2621014471556538 -0.004104987813841931 -0.1368814297272569 -0.08202175801873264 -0.1594952247405682 -0.102580386650616 -0.03614238478469921 -0.1488548846986828 -0.08495478510645194 0 
0 0 0 0.02001296382353095 0 0 0 0 0 0 0 0 0 0 0 -0.118666847265058 0 0.01127388832406727 0.1639467933096755 0 
-0.1608529303952026 -0.0916235667616582 -0.01490324452472966 -0.1381894644686171 -0.00964230078834425 -0.0356840095203735 -0.1883836020057471 0 0 0 0 0 -0.07714228251037354 0 0.07127997447268505 0 -0.03984645695756023 0.0538653871108267 -0.05108951405205493 -0.2006893334744715 
0 0 0 0 0 0 0 0 0 0 0 0 0 0 0 0 0 0 0 0 
-0.2305730892955738 -0.04014953137353286 0 0 -0.08845349747880457 -0.1467001879558329 -0.04259208426523712 0 0 -0.4401823331845224 -0.08589978073787516 0 0.01243735328805469 0.01279167829131251 -0.2780111280396914 -0.1296335522736147 0 0 -0.1377009171303837 0 
0 0 0 0 0 0 0 0 0 0 0 0 0 0 0 0 0 0 0 0 
-0.02266036869415155 0 0 0 0 -0.04134866621372774 -0.3680644717833762 0 0 0 0 -0.04950332785635768 0.01336141055462258 0 0.04956140961862208 -0.06066358700951133 -0.1504380706178749 -0.01979866412819984 -0.03282538207086799 -0.0001289784628862525 
-0.04882842951992075 -0.1998581152959493 -0.06373741697384563 -0.3637554823042066 -0.3677977590793958 -0.129419276632731 0.09086835270262127 -0.02685598569986427 -0.2147070276888058 -0.2981828559071049 -0.1679622986365964 -0.06424379215154273 -0.01063396533582196 -0.002189896700830341 0.01324813093863122 0.01449343992995063 -0.01326768818665927 -0.0389433742922501 0.005715861504863837 -0.09416529835813238 
0 0 0 0 0 0 0 0 0 0 0 0 0.002391002034101808 0 0.01674054172562064 0 0 0.1933180160082101 0 0 
-0.07793029481259214 0 0 -0.05340119597338109 0 0.009740897007384088 -0.1139720404015331 0.1239517180047604 -0.1744721483444746 -0.1490542046650416 -0.08035647729969979 -0.04720078131904336 -0.06437634784999581 -0.1874347774896675 -0.02509739354352839 -0.0003384158077029826 -0.09689000963895887 -0.1016374425607123 -0.006591814354098102 -0.2296687100132835 
-0.2027100466355594 0.007017288942636335 -0.02226687834005055 0 0 -0.09300414261112136 -0.02450042601375504 0 -0.09887571223476556 -0.3976944991257613 -0.0778147078887306 -0.04561976021326862 0 -0.3626946537257973 0 0 0 0.0296620855236468 -0.04404481405942587 -0.03953165716017124 
0 0 0 0 0 0 0 0 0 0 0 0 0 0 0 0 0 0.01776452780143441 0.009182427947556655 0 
0 0 0 -0.670735874494225 -0.2660791720694242 -0.3784193029338114 -0.1457386059923767 0 -0.1289611029407233 0 0 -0.2018316889709224 -0.08396533548364273 0 -0.05274273160728511 -0.3596597821100122 0 -0.07959162271688626 -0.1835583116075638 0 
0 0 0 0 0 0 0 0 0 0 0 0 0 0 0 0 0 -0.01484760472189769 0 0 
-0.02960405893152276 0 0 0 0 0 0 0 0 0 0 0 0 0 0 0 0 0.06486713566114184 0.0265462482301299 0 
0 0 0 0 0 0 0 0 0 0 0 0 0 0 0.01192652620400764 0 0 0.1050585213228916 0 0 
-0.06491497166594716 0 0.2681748751356866 0.003170121921521574 -0.124465274036276 0 0.006636576632094155 -0.007217702656767022 0 -0.03641333735189757 0 0 -0.04084217679647772 0 -0.02910958271750674 0.2259866964925432 -0.07641144117393248 0.01877222019733877 -0.01875350163648181 0.09445392413081745 
0 0 0 0 0 0 0 0 0 0 0 0 0 0 0.08606907722175551 -0.4816192815061668 0 0.1000194414601035 -0.2064423259218741 0 
0 0 0 0 0 0 0 0 0 0 0 0 0 0 0 0 0 0 0 0 
0 0 0 0 0 0 0 0 0 0 0 0 0 0 0 0 0 0 0 0 
-0.199643049438657 -0.2752560770190616 -0.1111715422812158 -0.134046541915825 0.1548532386187967 -0.08713528953226621 -0.02298774450656562 -0.1041086749709046 -0.4123671456206113 0 0 -0.3675254326880132 -0.148499062035385 -0.003695837178400685 -0.00366644639884094 0 0 -0.03675565676299491 -0.179801614457957 0 
0 0 0 0 0 0 0 0 0 0 0 0 0 0 0 0 0 0 0 0 
0.0887589055863803 0.2387617459302701 -0.1557465469885371 0 0.0004277867870556496 0 0 0 0 0 0 0 0 0 -0.1839773413573469 0 0.03285489443904789 -0.02526092371275963 0.0330569459446189 0 
0.06744369084477084 0 0 0 0 0 0 0 0 0 0 0.2707277628219826 0 0 0 0 0 0.1061709005542187 0 0 
-0.09851644014596811 0 0 0.05849411366856767 -0.0005168925194317693 0.09427213809918666 -0.03037433060404427 0 0 0.01455800762575326 0.1771458802240466 0 0.0235201015754313 0 0 0 -0.1292391251864308 -0.05948721516202306 -0.00786588500007273 -0.0001110779695491742 
0.01696222277511312 0 0 0.3373795535268733 0.06347471791728959 0.2324481425914441 -0.01575958997042767 0 0 -0.1418618032940119 0.07697453403992027 0.08244969146482632 0.2561873359778274 0 -0.004968080333462993 0 -0.4712167179255946 -0.02052509530066105 -0.1355218610052273 0 
0 0 0 0 0 0 0 0 0 0 0 0 0 0 0 0 0 0.4140898097811505 0 0 
0 0 0 0 0 0 0 0 0 0 0 0 0 0 0 0 0 0 0 0 
0 0 0 0 0 0 0 0 0 0 0 0 0 0 0 0 0 0 0 0 
-0.1820448600718184 -0.6239015724092828 -0.3974982069881214 -0.3732407887127021 -0.3691505316134152 -0.5917119292812139 -0.06229850861735418 -0.5418678440152259 -0.5299422908089888 -0.1530200820033077 -0.1967404377261424 -0.3168278570825659 -0.2861768553507069 -0.3375480518596661 -0.08789511633555618 -0.09802506637105383 -0.01446680065831843 0.04137356964709115 0.008754807646209003 2.633596741353557e-05 
-0.07559603508004287 -0.08472854041496403 -0.3550289943848103 -0.1770273349355218 -0.05707908026256646 -0.1071476410170849 -0.04757202723642528 -0.2251840361561659 -0.1798467460807219 -0.3528905573711131 -0.2400883237495484 -0.2362422797712982 -0.05307787607815397 -0.3878612094915132 -0.2964744992459004 -0.2097057468630193 -0.1866847162447149 -0.03500464381122073 -0.04104169885987239 -0.09730970949432415 
-0.07688228904057352 -0.228806324898757 -0.3798266186659188 -0.2492922721036346 -0.5033695510732313 -0.3000885296725235 -0.08558373691835384 -0.4022413885924622 -0.2977549303326534 0.3219551150335935 -0.2201655757109989 -0.2681862124972657 -0.1862484385666614 -0.3852695411289933 -0.3428825015766709 -0.2386648734747746 -0.379749471296315 -0.07757192126213275 -0.07260069239514859 0 
0 0 0 0 0 0 0 0 0 0 0 0 0 0 0 0 0 0.007068566384256322 0 0 
0 0 0 0 0 0 0 0 0 0 0 0 0 0 0 0 0 0 0.09782423874161798 0 
-0.1766460878781176 -0.139206298435695 0.06240042967014404 -0.0211818408916375 0 -0.02765449977973021 -0.1735188206067425 -0.1354395127767298 -0.2782221698945279 -0.3015631932134247 0 -0.1078288297347137 -0.366069018956759 -0.3954654663318876 -0.1603487060876824 -0.02277480079213709 -0.194367146652591 -0.09087185012616118 0.006223775095512953 -0.5958744210984769 
0 0 0 0 0 0 0 0 0 0 0 0 0 0 0 0 0 0 0.5613456715656323 0 
-0.0350295851127785 0 0.09679128109517844 0 0 0.02991517468363469 0 0 0 0 0 0 0 0 0 -0.3421694562525731 0 0 0.01256370002468216 0 
-0.08076900393004927 0 0 -0.4999739730220341 0 -0.003248018620726141 -0.3467111240438647 -0.2406013741153053 -0.02488686447114857 0.1953333519485324 -0.3291506063912807 -0.3162372078056905 0.07155392040006558 0 0.1150062868184083 0 0.03852902058727997 0.006808406519699544 -0.08463236353277422 -0.08637241023995765 
0 -0.1022868112297965 -0.2263632222541887 0 -0.1793820304813935 -0.009640955047865591 -0.07567221558363398 0.09393121694949121 0.1005893966097396 -0.7218490499826624 0 -0.1860344703547923 -0.2387552449699855 -0.355502013445688 0 -0.2303733191360451 -0.0562717920787186 0.008139384508860526 -0.05821148328396103 -0.02038304919807573 
0 0 0 0 0 0 -0.02747416326156839 0 0 0 0 0 0 0 0 0.1966112661802988 0 0.04921514956771646 -0.0499498024762547 0 
0 0 -0.215342737803497 0 0 -0.08794339775409594 -0.01599701704887144 0 0 -0.3068553429781126 -0.1369704031155867 0 -0.002413759052302011 -0.002395837397857248 0 0 0 0.1229498465009738 0.002268289579226414 -0.2824916117234091 
0 0 0 0 0 0 0 0 0 0 0 0 0 0 0 0 0 0.2982070313895523 0.02431449659274472 0 
0 0 0 0 0 0 0 0 0 0 0 0 0 0 0 0 0 0 0 0 
0 0 0 0 0 0 0 0 0 0 0 0 0 0 0 0.00776895144466551 0 0 0 0 
-0.01803612890161952 0 0 0 0 0 0 0 0 0 0 0 0 0 0 0 0 0.04636711466592747 0 0 
0 0 0 0 0 0 0 0 0 0 0 0 0 0 0 0 0 0.1362456380115014 0 0 
0 0 0 0 0 0 0 0 0 0 0 0 0 0 0 0 0 0 0 0 
-0.03386423299111278 -0.1342629059748114 0 -0.07143806854080315 -0.01992222860317536 -0.1487097359013181 -0.07839317571842487 0 -0.09728000150898271 -0.1263359814946865 -0.07071263735558173 0 0 -0.01996986631418471 -0.003818747612473192 -0.1253462328086788 -0.03626828322754197 -0.07536705819370441 -0.02660147837287916 -0.2707816739348153 
0.004776523327724008 -0.2567537825663127 3.063695130656839e-05 0 0 0 0.04620732371068514 0 0 0 0 0.00661392763072653 -0.1211063684694392 0 -0.0008716550553962738 -0.001933405324861052 -0.0289301759004076 -0.1297091035463428 0 0 
0 0 0.6280397280288162 0 0 0 0 0 0 0 0 0 0 0.6320432132672077 0 0 0 0.02690053271783608 0 0 
-0.2123152442250907 0 0.2607122418703888 0 0 0.0642178667391009 0.04125672504978891 0.1746438642814457 0 0.3408383138489291 0 0.02634372417326273 0 0 0 0 0 0 0 0 
0 0 0 0 0 0 0 0 0 0 0 0 0 0 0 0 0 0 0 0 
0 0 0 0 0 0 0 0 0 0 0 0 0 0 0 0 0 0 0 0 
0 0 -0.3881599303240248 0 0 0 0 0 0 0 0 0 0 0 0 0 0 0 0 0 
0.2428892704425357 0 0 0 0 0 0 0 0 0 0 0 0 0 0 0 0 0 0 0 
0.07756650184003552 0 0.1083569999143064 -0.03063875923765361 -0.005218887893135713 -0.01326623590609739 0 -0.06136259727341213 0.0222578819151842 -0.53964681417734 -0.3142193829381363 -0.2821950292566289 -0.4016418183341225 -0.3190720912698057 -0.1727374444506015 -0.489225650547243 -0.2335513865220267 -0.1034909841085205 0.003261164706111861 -0.5183597518057205 
0.01386135840405087 0 0 0 0 -0.004992273208151228 -0.1234978118657535 0 0 0 0 0 0 0 0 0 0 0 0 0 
0 0 0 0.1569375761184604 0 -0.02087252607583001 -0.05125548245162661 0 0 0 0 0 0 0 0 0 0 0 0.04572449401879048 0 
0 0 0 0 0 0 0 0 0 0 0 0 0 0 0 0 0 0 0 0 
0 0 0 0 0 0 0 0 0 0 0 0 0 0 0 0 0 0.08412026914643884 0.05626348439543537 0 
-0.05429884679568935 -0.2178561993279109 0 0 0 0 -0.08553898609485021 -0.09631172571521346 -0.09087529047721039 -0.03175439801153043 -0.003180849441915938 0 0 -0.1206545741732439 0 0 0 -0.1207928271654666 0.2690483543505504 0 
-0.0219564137575313 0.03748303559127037 -0.05107786574069063 -0.1011075912375414 -0.4772189775730556 -0.5422155108637136 0.02577134850345014 0 -0.3644945834248531 0 0 -0.01524095985365444 -0.003511670591091463 -0.3434647090470862 -0.01173294905850852 -0.4775188528450915 -0.01743854145781283 -0.02649124513495726 -0.1463309078946909 -0.0718476572390265 
0 0 0 0 0 0 0 0 0 0 0 0 0 0 0 0 0 0 0.3241621449287617 0 
-0.06488756446626233 -0.4438556386400313 -0.4262424792264281 0 0 -0.008503754322508623 -0.04437873878280369 -0.1572240755278289 0 0 0 0 0 0 -0.0415563014687479 0 0 -0.07870164183234209 -0.06110256421575962 0 
0 0 0 0 0 0 0 0 0 0 0 0 0 0 0 0 0 0 0 0 
0 0 0 0 0 0 0 0 0 0 0 0 0 0 0 0 0 0 0 0 
0 0 0 0 0 0 0 0 0 0 0 0 0 0 0 0 0 0 0 0 
-0.2005925764597172 -0.3764300539253393 -0.3182266508794722 0 -0.4432344203117829 0 -0.1359048199020212 -0.4588948166699388 -0.1179038454165123 -0.008493838854268151 -0.006983626712546411 -0.2151384085554774 -0.139813462973906 0.2522375120989924 -0.05644872800648143 -0.3691028002287288 -0.1992499966199954 -0.01292356933051965 0 -0.4308990805538288 
-0.02590816364631754 0.184124334773896 0 0.1176050577619044 0 0 -0.06923344854701294 0 0.1054344327558159 -0.01465752885553424 0.009908473370791253 0 0.2246256025702786 0 0 0 0 -0.1425531735096857 0 0 
0 0 0 0 0 0 0 0 0 0 0 0 0 0 0 0 0 0 0 0 
-0.09834587568987899 -0.1647521152939765 0.003096390243544346 0 0.1779089140319917 0.2121689040837724 -0.04356822479389796 0 0 0 -0.008971017755390071 0 -0.04859813691644559 0 -0.08802971545641528 0.2175007367007829 -0.008075153019059575 0.0188453780285698 0 0 
0 0 0 0 0 0 0 0 0 0 0 0 0 0 0 0 0 0 0 0 
-0.107099520720406 -0.0582215940661912 -0.07783878566046236 -0.1732092387379696 -0.1187727793923872 0 -0.05435483958376494 -0.2126815542664189 0.06019582811245263 -0.231563804774358 -0.07375220152366431 -0.1066612255502628 -0.1441970242825738 -0.2468098129507236 0 0.0002411696403147826 -0.004195937704100488 -0.02282738930308859 -0.03926969494823155 -0.1379182380864027 
0 0 0 0 0 0 0 0 0 0 0 0 0 0 0 0 0 0 0 0 
-0.1330641701470461 0 0 -0.2437109912906725 -0.01047545401958321 -0.3417365450382654 -0.5083313424239702 -0.7177678346179953 0 -0.01340205676582704 0 -0.1571065034952212 0 -0.2705384400826208 -0.003911207422312648 -0.1201698393386871 0.1925719841345728 -0.008103366731243409 0.0003285846121573598 0 
0 0 0 0 0 0 0 0 0 0 0 0 0 0 0 0 0 0 0 0 
0.1211352728299329 0 0 0 0 0 0 0 0 0 0 0 0 0 0 0.2511296581527401 0 -0.03720949210731658 -0.04252343229727665 0 
0 0 0 0 0 0 -0.2158519545670167 0 0 0 0 0 0 0 0 0 0 0 -0.03977562157415798 0 
0 0 0 0 0 0 0 0 0 0 0 0 0 0 0 0 0 0.3013018498456469 0 0 
0 0 0 0 0 0 0 0 0 0 0 0 0 0 0 0 0 0 0 0 
0 0 0 0 0 0 0 0 0 0 0 0 0 0 0 0 0 -0.01866653951157574 0 0 
0 0 0 0 0.2003563675496794 0 -0.01037067939773405 0 0 0.1006157918962387 0 0 0 0 -0.004987893744788845 0 0 0 0 0 
0 0 0 0 0 0 0 0 0 0.2674982558620546 0 0 0 0 0 0 0 0 -0.02001499122241222 0 
-0.1934814505998169 0.1531180944020754 0 -0.01731884690639317 -0.05706917234218545 -0.133817116272926 0.03749783159134333 0 -0.3074734897106013 -0.513708957421302 0 0 -0.3073011627579533 -0.3471472935333401 -0.1749625340679763 -0.3651277473749919 -0.1094558547366513 -0.02064230961031628 -0.02496161430008833 0 
0 0 0.2862164793401989 0.1953357098987672 -0.01111343098614088 0 -0.06502419725335272 0 0 0 0 0 0 0 -0.02696832656225605 -0.0156288885504104 0 0 0 0.3138047752922277 
0 0 0 0 0 0 0 0 0 0 0 0 0 0 0.0174184337541148 0 0 0.006389958671504504 0.08242256714785728 0 
0 0 0 0 0 0 0 0 0 0 0 0 0 0 0 0 0 -0.04203059910037738 0 0 
0.3248101412168168 0 -0.1924374676529284 0 0 0.009039099437874511 -0.01351198937366754 0 0 0 0 -0.06259800633644851 0 -0.3028028770720266 -0.0569274051218002 -0.07781311458819419 0 0 -0.1751792907018578 -0.06658609330046114 
-0.03021410166024216 0 -0.137872449545675 0 -0.1909624025102316 0.01200236730388881 -0.02460548677472271 0 -0.02720050018493429 0.007237969911296767 -0.2998491952623288 -0.1450992280732439 -0.2679267664859997 -0.307762982783827 0.01538595026598644 0.09496739044263136 -0.01632779235210138 -0.1187891546531123 -0.050821095464965 0 
0 0 0 0 0 0 0 0 0 0 0 0 0 0 0 0 0.2437305972249811 0 0 0 
-0.003822921875703445 0 0 0 0 0 0 0 0 0 0 0 0 0 0 0 0 0 0 0 
0 0.06045950460334106 -0.2597268872596866 0 -0.1812659134866995 0 -0.009456285123230641 -0.02132349370984103 0 -0.0573659082863897 -0.3949499733883479 -0.103564752810523 -0.05046725344009111 -0.06061314304754722 -0.03194303862895244 0 0.002304743278777625 -0.02122137097884835 0 0 
-0.2671962623686025 0 0 0 0 0 0 0 0 0 0 0 0 0 0 0 0 0 0 0 
-0.2290608449984611 0 -0.427266459551111 0.2372803804239905 -0.4106574930451797 0 -0.2468422719372247 -0.1819684800570431 -0.192791127778686 -0.006990052893750081 0 -0.3590332215483663 0 -0.005112868584583745 -0.2169222538356515 0 -0.03797578748398715 -0.5197624265781008 -0.06527209027587827 -0.3057615872101424 
0 0 0 0 0 0 0 0 0 0 0 0 0 0 0 0 0 0 0 0 
-0.1144225471912327 -0.1161716385211352 -0.3221277268035459 -0.1626558327664382 -0.01177167035920427 -0.004889927300575287 -0.002090918314242189 0 0.09219920559952076 -0.04464031455567132 -0.004844117767445861 -0.1619680612423703 -0.1218531211953868 -0.2359174410909453 -0.07512047559570174 -0.0281169282733057 -0.064377656926938 0.02968719632637008 -0.003007645783228882 0.004431806182588593 
0 0 0 0 0 0 0 0 0 0 0 0 0 0 0 0 0 0.02970091390165486 0 0 
0 0 0 0 0 0 0.05268113915336133 0 0.1508655671959873 0 -0.02657105192744719 0 0 0 0.07489465444174918 0.1132506889159451 0.0240069938912394 0 0 0 
-0.1499955402711491 0 0 0 0 0 -0.1135105034776968 0 0 0 0 -0.06801053412652425 0.01003641750366801 0 0 0 0 0.04865109572334455 0 0.1439452282677706 
-0.05400932487069044 -0.02788031336775741 -0.1064250449310684 0.1452711498769302 -0.2805135645631272 -0.142440817435851 -0.170415523239345 0 -0.0725678340292029 0 -0.115800451570336 0 -0.1397597861673794 0 -0.06162053686374578 0 -0.02532788429411391 0 -0.07584840793159664 -0.1172218069556907 
0 0 0 0 0 0 0 0 0 0 0 0 0 0 0 0 0 0.1292369877783237 0.3804397581110471 0 
0 0 0 0 0 0 0 0 0 0 0 0 0 0 -0.1148596015358753 0 0 -0.02085325274779338 -0.01844966043393136 0.6118868584263278 
0 -0.1731440676585297 0 -0.01232012855823238 0 -0.04516393255103847 0 0 -0.01875103247596565 0 0 0 0 0 0 -0.1852449536522047 0 0 0 -0.2027911945890512 
0 0 0 0 0 0 0 0 0 0 0 0 0 0 0 0 0 0 0 0 
-0.02330271742813266 -0.1099968652470267 0 -0.1040186973353104 -0.08257179389033713 -0.01290642590883385 -0.1999467342406133 0 0 0 0 0 -0.1740430710298974 -0.070512015461852 -0.1388169558905026 0 -0.188254557721652 0 -0.01593209636583606 0 
0 0 0 0 0 0.04344829273203796 0 0 0 0 0 0 0.1464847261812798 0 0 0 0 0 0 0 
0 0 0 0.1029409617900526 0 0 0 0 0 0 0 0 0 0 -0.01897612854391283 0 0.08914098566232324 0 0.04375287620303661 0 
0 0 0.507063161518618 0 0 0 -0.02224201588349902 0 0 0 0 0 0 0 0 0 0 0 0 0 
0 0 0 0 0 0 0 0 0 0 0 0 0 0 0 0 0 0 0 0 
0.0134859624077573 0 0 0 0 0 0 0 0 -0.1830739178493762 0 -0.0518211032655156 -0.01216485476433318 0 0 0 0 -0.03775682816429918 -0.1560400924429318 0 
0 0 0 0 0 0 0 0 0 0 0 0 0 0 0 0 0 -0.1499760776684955 -0.03266477548324234 0 
0 0 0 0 0 0 0 0 0 0 0 0 0 0 0 0 0 0 0 0 
0 0 0 0 0 0 0 0 0 0 0 0 0 0 0.199750280808328 0.180620405209553 0 -0.03546935813902478 0 0 
-0.02930764572815591 -0.04845224002307859 0.228276026553437 -0.01215195843971 -0.290035405721782 -0.3674542080177145 -0.2337563505928979 -0.039359351540713 -0.001599661305921533 -0.4124509196557327 -0.1102419444872798 -0.008312155108138828 -0.2947218807173784 -0.01200510936742159 -0.03046722542209302 -0.235308641390255 -0.1432198997806325 -0.116582739656752 -0.1414285632257992 -0.185183277293167 
-0.03933983502703078 0.05596030386937045 0 0 0.05608266651829315 0.0447915808513718 -0.0009043196297340897 0 0 0.2396975031428661 0 0 -0.04097407449860966 0 0 0 0.06343450520091673 0.05485928311886838 0 -0.007580221147172888 
-0.008779809107482809 0 0 0 0 0 0 0 0 0 0 0 0 0 0 0 0 0.1343072293773489 -0.0158032698608111 0 
-0.2365704191752436 0 0 0 0 -0.1689384984152005 -0.06466168785689365 0 0.2956392421075011 0 0 0 0 0 -0.4630620328467106 0 -0.154605979157143 -0.1291161921474751 0 0 
-0.1421989727214403 0 0 0 -0.0589512570371141 0 -0.01241149672479651 -0.06841155153999867 0 0 0 0.1410367498853524 0 0 -0.1589878336078694 0.145302053976758 0 -0.02499010110256805 0.1750356314900352 0 
0 0 0 0 0 0 -0.02508938867591408 0 0 0 0 0 0 0 0 0 0 0 0.8101290889574514 0 
0 0 0 0 0 0 0 0 0 0 0 0 0 0 0 0 0 0 0.2868906196165474 0 
-0.008046286862857197 -0.1537000484949302 -0.00336105417101584 -0.126591225016306 -0.1658487809876655 -0.1138111479797 -0.002979930839570272 -0.1444547974126784 -0.1476327180829277 -0.08324813353860321 -0.2067709482558954 -0.02328241925257173 0.02289074561871594 -0.05836136553274924 0 -0.02370362404642467 -0.06746316469802198 -0.1245272636300346 -0.004422118466668519 -0.2428882977209686 
0 0 0 0 0 0 -0.008283649754626194 0 -0.06742249469465689 0 0 0 0 0 0 0 0 0.02874628717068838 0 0 
-0.2540622973813175 0 0 -0.1245213720815586 0 0 0 -0.04901190739912448 0 0 0 0 0 -0.01187037282555714 0 0 0.02564068393929996 -0.002208362014184379 0.007154163902038551 -0.1064406572287947 
0 0 0 0 0 0 0 0 0 0 0 0 0 0 0 0 0 0.01433580768695641 0.09086327200358203 0 
-0.06065704741203896 -0.2261002691300053 -0.3991465432036552 -0.2675666214078299 0 0.05189620960631904 -0.03230101734541286 0 0 -0.1557763046399579 -0.01144252705073465 -0.1583055983471223 0 -0.01894114223188059 0.1263809728388572 -0.1304598716813326 0.02452614032774716 -0.02438086141181735 0.06124083409977656 0.1828424906424597 
0 0 0 0 0 0 0 0 0 0 0 0 0 0 0 0 0 -0.2144747165421536 0.1399710226920522 0 
0 0 0 0 0 0 0 0 0 0 0 0 0 0 0 0 0 0.03397594566977703 0.04254412518357263 0 
0 0 0.04558174566475202 -0.2009244072222716 0 0 -0.06405203933965381 0 0 0 0 0 0 0 0 0 0.08697993711117645 0.05761576096364362 0 -0.1830901421400854 
-0.09066801988749332 0 -0.04087308608019532 0 0 0 -0.01099389860860957 0.001318783378880959 0 0 -0.07903608923555472 0 0 0 0 -0.5091163798260261 0.01565043656992415 -0.06879586490179251 0.04598899781102916 0.3074183425529006 
0 0 0 0 0 0 0 0 0 0 0 0 0 0 0.07221785408864252 0 0 0 -0.01461009755889946 0 
-0.07331211142268761 -0.1551651348201651 0.06722165390156025 -0.01573494370669088 0 -0.175009887649121 -0.09327956975622101 0.00357598551604214 -0.09985130680692075 0 0.02539073902991069 -0.008721248543753118 -0.3279660958508629 -0.1360384390423954 -0.1522635493254838 -0.04107510168122674 -0.3173944485414491 0.03180045814516111 -0.04296598619071702 -0.01971884501271749 
0 0 0 0 0 0 0 0 0 0 0 0 0 0 0 0 0 0 0.09738973494842568 0 
0 0 0 0 0 0 0 0 0 0 0 0 0 0 -0.000728237092775541 0 0 -0.2509529326451428 0 0 
-0.1066921895628192 0 0 0 -0.02876047162677792 0 -0.07119327073766557 0 0 0 0 0 0 0 0.04365967540521953 0 0 -0.01325654395646487 0.08924377914058405 0 
0 0 0 0 0 0 0 0 0 0 0 0 0 0 0 0 0 0 0 0 
-0.06060892147825056 -0.129120755849788 0 -0.5351219547373223 0 -0.02666311859050831 0 -0.1209047874903691 0 0 0 0 -0.009233103494423868 0 0 0.1776910795798332 -0.07741680491560257 0 -0.07057906830687831 -0.1073008932213491 
0 0 0 0 0 0 0 0 0 0 0 0 0 0 0 0 0 0 -0.02165083319049364 0 
0 -0.3528276028233603 0 -0.0006387432783295927 0 0 0 0 0 -0.2949500109458776 0 -0.04251324748175227 -0.04333112627330631 0 -0.009889698796430873 0 0 0 0.04959996910824849 -0.05636469254033294 
0.03015670598524937 0.01198457350291364 0 0 0 0 0 0 0 0 0 0 0 0 0 0 0 0.1052691737988236 0 0 
0 0 0 0 -0.2836110762577508 0 -0.008655411577264162 0.008995485284976816 -0.2702333639436064 0 0 0.2025454872277992 0 0 0 0 0.004320899150416918 -0.009377307367815448 -0.004008858219038056 0.2926343155986565 
0 -0.09144030758300024 0 0 0 0.001567071100242971 -0.0334196995265537 0 0.08278760576276177 0 0.0003010036968328197 -0.00311506524299896 0 0 8.85527134592453e-05 -0.00330563232239455 0.03871366105942692 -0.05136400868320995 -0.002932507257232095 0 
0 0 0.5424406572560381 -0.1735255432432773 0 0 -0.1652736914521063 0 0 -0.01671885954081775 0 0 0 -0.08164975551962148 0 0 -0.0005308520977029829 0.08788935348388809 -0.01169977695387744 0 
0 0 -0.07200728768147982 0 0 0 -0.0354534546877965 0 0 0 0 0 0 0 0 0 -0.04185294834926925 0.1253318358616959 0.01219067244188796 -0.289700816744418 
0 0 0 0 0 0 0 0.01572315096902705 0 0 0.1248778188006145 0 0 0 0.01672890662489651 0.2684400436436027 0 0 0.1198440536582576 0 
-0.2514020216298167 0 0 0 0.4120490198554438 0 -0.02992168966839984 0.2544254755239939 0 0 0 0 0 0 0 0 0.02799804947343572 -0.008802249103644459 0 0 
-0.1312552223283501 0 0 0 -0.2336956769513862 0.0004267403705593281 0 0 -0.01363745254493373 0 0 -0.009825390079776919 -0.09294770703996565 0 0.1531607900538905 -0.08110794482835397 0.02688344170358076 -0.002186818287667209 0 0 
0 0 0 0 0 0 0 0 0 0 0 0 0 0 0 0 0 0.05121365296888286 0.07987674070056582 0 
0 0 0 0 0 0 0 0 0 0 0 0 0 0 0 0 0 0 -0.1282992828304192 0 
0 0 0 0 0 0 0 0 0 0 0 0 0 0 0 0 0 0 0.3024910652715023 0 
-0.07423893514817674 -0.161956208037658 -0.05690281299959132 0 0.1672247850391983 0 -0.1478431586517692 0 0 -0.178356005368642 0 0.09613067882239781 -0.1868735417800627 0 0.1157547980494976 0.1463862486277989 -0.0905868748781217 -0.01412469864717864 0.06873676872658904 0 
0 0 0 0 0 0 0 0 0 0 0 0 0 0 -0.06527097406989739 0 0 -0.006436421403430456 0 0 
0 0 0 0 0 0 0 0 0 0 0 0 0 0 0 0 0 0 0 0 
0 0 0 0 0 0 0 0 0.4357279304741778 0 0 0 0 0 0 0 0 0 -0.01742053738398197 0 
-0.2177897598812697 -0.09687314975972652 -0.4189730762744072 -0.2500444828230505 -0.1203975331406309 -0.11885187862768 -0.1361245209453993 -0.5674463519641998 -0.2610687593847625 0.3008394727465099 -0.1752997926468647 -0.1723088721425718 -0.1670054571627419 -0.2625010252183136 -0.2284817421859342 -0.1661322317841848 -0.08759324269286915 -0.05902654421510693 -0.1210232777444642 -0.2554963323857256 
0 0 0 0 0 0 0 0 0 0 0 0 0 0 -0.004969607020176708 0 0 -0.004919596831694226 0.09713667459207846 0 
-0.06266817416522323 -0.2273468078265876 -0.3987895689647048 -0.2053378120337523 -0.1413050327820349 -0.01817384414465211 -0.2816292302181319 -0.03076974542635542 0 -0.2157689413536589 0.02123941026193277 -0.1424339676216657 0.09221200548226191 -0.1686291283912123 0.05170550890150546 -0.1513647113623388 -0.1202736654506649 -0.0803363379421919 -0.01671362371961478 -0.02675784762765564 
-0.1447077924027412 0 0 0 0 0.002005026585763472 -0.04144061507840143 0 0.09007889485200023 0.1672414089020806 -0.02366200476549831 0.03989277062230584 -0.09312708923673151 0.0973554821202146 0.02184769558189878 0 -0.004613846860918602 0 0.03187611702086933 0 
0 0 0 0 0 0 0 0 0 0 0 0 0 0 0 0 0 0 0 0 
0.00627888584486723 0 0 0 0 0 -0.06063150990010301 0 -0.1744229447644869 0 0 0 0 0 0 0.1412794459828063 0 -0.03501382997575076 0.03409981640910127 0 
-0.06222295156960791 -0.007875391101274104 0 -0.1101246343978716 -0.2273656010564168 -0.03586826790653636 -0.05854870088606985 -0.192603964171173 -0.1689064279918933 0 -0.2483903700957261 0 0 -0.1276126956914758 0.0507968957223573 0.1411302108484739 -0.09969900197482122 -0.006658633835656974 -0.01107619441797843 -0.01480693059338038 
-0.07592246813073046 0.3661223374880734 0 0 0 0 0 0.3027042451754649 0.3543351968695363 0 0 0 0.1003381458542919 -0.004402146141010883 0 0 0 0.02252982235776632 0.03294210828803 0 
-0.149626043522439 0.09425469888550399 0 0 0 0 -0.07584054514050019 0 0 0 -0.0003445583381318284 0 -0.02352331355475099 0 -0.005031359118143624 0 0 -0.007970510889927706 0.0107257419476056 0 
0 0 0 0 0 0 -0.09405002376215933 0 0.06372644725060396 0 0 0 0 0 0 0 0.01397463165158465 -0.1853023561062218 0 0 
0 0 0 0 0 0 0 0 0 0 0 0 0 0 0 0 0 0 0 0 
0 0 0 0 0 0 0 0 0 0 0 0 0 0 0 0 0 0 0 0 
0.04310980590178809 -0.179253207588135 -0.029824857498387 0.008293081061065577 -0.002230561007662091 0 0.01548625473975144 0 -0.06048766369516584 -0.02697157555973808 -0.034180712892095 -0.02659465656698907 0 0 0.09214806083606662 -0.01533796291099257 0 -0.02946289919790647 0.02986322247022779 -0.05373026574162186 
0 0 0 0 0 0 0 0 0 0 0 0 0 0 0 0 0 0 0 0 
0 0 0 0 0 0 0 0 0 0 0 0 0 0 0 0 0 0 0 0 
0 0 0 0 0 0 0 0 0 0 0 0 0 0 0 0 0 0 0 0 
0 0 0 0 0 0 -0.0815264758150661 0 0 0 0 -0.2557296708381293 -0.02182966453957425 0 0 0 0 -0.2046038788049912 0 0 
-0.2659596994711852 0 0 0 0 0 0.0216207691027462 0.05813350671583443 0 0 0 -0.1627312939939695 -0.04682771239848656 0 -0.0545679903277466 0 -0.2085273177181177 -0.05348562216852179 0.05699617745855461 0 
0 0 0 0 0 0 0.02256224884839789 0 0 0 -0.05063329149864341 0 0 0 -0.01137775825936274 0 0 0 0 0 
-0.05021124023054476 0 -0.2231697723687146 0 -0.1435580875061003 -0.06372377254668166 -0.1230654978851412 -0.04370469030768395 -0.1671428240409963 -0.2719972175402739 -0.08164797761342997 0 -0.1934697958370248 0 -0.03529039675027051 0.1478525217011088 -0.1787540843912216 -0.07174217748355993 0 -0.1395983609999404 
-0.04619998649889995 0 0 0 0 0 0 0 0 0 0 0 0 0 0 0 0 -0.1975742749162741 0.07681266702322108 0 
-0.1494089126664002 -0.3455675466694811 -0.1290478083162754 0 -0.04808578242630447 -0.09384328096508901 0.05595645487546543 -0.003602918165267837 0 -0.03762489529407521 -0.3812747198373215 -0.2429574257678307 -0.03420545498684636 -0.3025613066166735 0.06521947683320563 -0.05486384606689499 -0.178338935050565 0.009793587786584918 -0.04270596790080636 -0.006869529080713016 
-0.16512043957285 -0.05008749828975666 -0.5199390480605151 -0.006776997013634167 -0.1457401431671703 -0.08791883691214084 -0.1237586172401526 -0.1077033264230427 -0.1464779471478979 -0.3628879271375652 -0.4281232820236334 0 0 -0.03997791630222521 -0.1375293122499722 -0.08802625735769977 -0.2001984092012453 0.0617958460926776 0.05589741769239 -0.3158536798571841 
-0.01052309495788297 -0.1146165079799474 -0.03655778514493604 -0.03665459570078983 0.09228769022586517 0.004023438052194075 0.03998175979394496 -0.1001615301536209 -0.2973923836105059 -0.143523536263295 -0.03420636817227223 0.02002142796877708 -0.1573683928016168 -0.06148256659785807 -0.09649193749449266 -0.0002645386523806522 -0.1228353362483657 -0.0525450877327177 -0.03095672482920017 0 
0 -0.3481478212451903 0 -0.2577779137299375 0 0 0.3030572373534894 0 0 -0.2013143554930156 0 0 0 0 0 0 0 0.09791828054282271 0 0 
0 0 0 0 0 0 -0.02160887403205225 0 0 0 0 0 -0.3669728613329997 0.1813844463339751 0 0 0.01779893199692598 -0.2037711675570687 0.06406207296449321 0 
0 0 0 -0.01963898239548755 0 -0.3263244627073904 0.06599882902469523 0 -0.04364429404610266 0 0 0 0 0 0 0 0 0.01949810244835568 0.03366596352630469 0 
0 0 0 0 0 0 0 0 0 0 0 0 0 0 0 0 0 0 0 0 
0 0 0 0 0 0 0 0 0 0 0 0 0 0 0 0 0.5692593217708001 0 0.07342539317249656 0 
0 0 0 0 0 0 0 0 0 0 0 0 0 0 0 0 0 0 0 0 
0 0 0 0 0 0 0 0 0 0 0 0 0 0 0 0 0 0 0 0 
-0.1715423536026865 -0.1487244365609552 -0.1558796555920421 -0.2377467413705475 -0.1160114407636207 -0.1391172091194032 -0.01820475504031158 -0.0982849483294367 -0.1101947805563548 -0.02579604983223612 0.02487038538671951 -0.2903791856954658 -0.003167942615561525 -0.2582035307319241 -0.1164977638485646 -0.1880407994881408 -0.117042249133284 -0.04919413648068315 -0.004878636628074176 -0.3210869525747909 
-0.185203903470558 -0.249832613072375 0 0 -0.04507558774413851 0 0.1015279835379822 0 0 0 0 0 0 0 0.1052912462278389 -0.1357071590408368 -0.02942966866432353 -0.06368479362449803 -0.01933372925819543 -0.0880061229997029 
0 0 0 0 0 0 0 0 0 0 0 0 0 0 0 0 0 -0.06290919152505881 0 0 
0 0 0 0 0 0 0 0 0 0 0 0 0 0 0 0 0 0.09888926814385597 0.0804550565423125 0 
0.1861345845719013 -0.07644801362678645 -0.07528544438558928 -0.3203872084655427 0 -0.1087785102289353 -0.01631736819376915 0 0 0 -0.0001629684024264666 -0.1520343336307761 -0.152605838451309 -0.07782883184795276 0 -0.01629998719821477 0 -0.08987133469481602 -0.1617106623105047 0 
0 0.6745405533030232 0 0 -0.2048064487218405 0 0 0 0 0 0 0 0 0 0 0 0 0 0.001739305688151882 0 
-0.1497142786823905 -0.3621595507995114 -0.2391125268336093 -0.3597900172622322 -0.3216213178032973 -0.1618853441348875 -0.1995044393010582 -0.2090369884287461 -0.4817353637836559 -0.4505755801430574 -0.4192033284041683 -0.2261213288600395 -0.3522982677484792 -0.3205240562830411 -0.2114136891960324 0 -0.2048932700828067 0.06223955209431768 -0.07084313394906004 -0.2467782005371084 
-0.02511986784158579 -0.4112895104133809 0.01099323369105575 0 -0.4938070344100065 -0.05326354935177305 -0.0275113247089231 0.040629233639993 -0.5161433664374039 -0.4901439865637044 0 -0.1459211928216944 -0.8245723781008004 -0.2263588974836503 0 -0.0815452227828778 0.01016936648610195 0 -0.1050616085154188 -0.03473987592406239 
0 0 0 0 0 0 0 0 0 0 0 0 0 0 0 0 0.1831223141431371 0 0.0608659101729267 0 
0.05738845113139717 0 0.1180418924948981 -0.3287941170337309 -0.007364518792945157 0 0 0 0 -0.04402027402539287 -0.444322372324048 0 -0.0104554506276969 0 0 0 0 -0.0003040912966840036 0.08465951013765484 0 
0 0 0 0 0 0 0 0 0 0 0 0 0 0 0 0 0 0 0 0 
0 0 0 0 0 0 0 0 0 0 0 0 0 0 0 0 0 0 0 0 
0 0 0 0 0 0 0 0 0.2601562882186788 0.1420552354493279 0 0 0 0 -0.2901206208011267 0 0 0 0 0 
-0.03594758925842217 0 0 0 0 0 -0.01364192514553149 0 0 0 0 0 0 0 0 0 0 -0.1144607429800919 0.02848714091633922 0 
-0.145329774492926 -0.2758698445571705 0 -0.01330713584486659 -0.08172901902883573 0 -0.1077603013910394 -0.004216149459281979 -0.007903741735709072 -0.3307170892074649 0 -0.08954337126472073 0.1428137116789361 0 0 0 -0.06697426196983704 -0.02366085078418267 -0.02795858885239029 0.09969065538628268 
0.0115319360254555 -0.001745971269022265 -0.2415014245527889 -0.09057063168635393 0.009946876313984639 -0.06731172420789365 -0.06464236618194905 0.1540768732255087 -0.2617925833744731 -0.3486408740719064 -0.138893260441208 -0.3608437455377777 -0.3273867638263655 -0.5536410996527107 -0.0671784311653546 -0.09532377101938357 -0.08847812004468081 -0.07935602800545651 -0.06847476124603485 -0.3717990674006226 
0.0556160594211554 -0.03530688768703514 -0.01710755280627767 0.1069865519831965 0.1448300328435705 -0.04288998940128378 -0.005739188930053422 0 0 0.3179969604755181 -0.2720684588188204 0 -0.1427768906949562 -0.009143356140867755 0 -0.01018055542448136 0.1577910673081709 -0.01278047172541698 0.04337034006367241 -0.1173749447063931 
0 0 0 0 0 0 0 0 0 0 0 0 0 0 0 0 0 0.01102913152125844 0.06813081537122932 0 
0 0 0 0 0 0 0 0 0 0 0 0 0 0 0 0 0 0.1304524728665368 0.1123244130194206 0 
0 0 0 0 0 0 0 0 0 0 0 0 0 0 0 0 0 0 0 0 
0 0.08352654184099857 0 -0.2222029842276429 0.03929240915828779 -0.02647501842476261 0 0 0 -0.3670447162213364 0 0 0 0 -0.0009093077500776594 -0.001627676007097265 0.04029868231801694 -0.09477071801638957 -0.2151886397073168 0 
0.03923949242122179 0 0 0 0 0.05596747870308302 0 0 0 0 0 0 0 0.1683218654816712 0 0 0 0.02822993203184126 0.05023350832828937 0 
-0.01569035697922296 -0.1177954209352613 0 -0.3698876283031503 0 -0.01430185434923619 0.0946761525255032 0 -0.07685717085885921 -0.3182484061855285 -0.04937292847526648 -0.08432342061156446 -0.1989854541752856 -0.5186086451246869 -0.09840451550181402 0 -0.1999859658888889 -0.1874876850306958 -0.1556143948921369 -0.3278432581032041 
-0.0436518453808639 -0.3992833537683321 0.2784551681191108 0 0 0 -0.08265542950118715 0 -0.05896444396091569 0.03362567402717412 0 0 0 0 0.01339240259306574 -0.02890106608061456 0 0.07313843716323935 0.0127264736805985 0 
-0.01738710661911225 0 0 0 0 0 -0.09246693498972991 0 -0.1015551345543731 -0.003801687193548712 0 0 -0.06054995200375232 -0.1395997109300789 0 0 0 -0.03483334438978328 0 0 
0 0 0 0 0 0 0 0 0 0 0 0 0 0 0 0 0 0 0.143570121834058 0 
0 -0.05088730269584066 0 0 0 0 0 0.1077481389586418 0 0 0 0 0 0 0 0 0 -0.06669209183763139 0.02298365114657452 0 
-0.107369287762776 -0.3655523505681681 -0.3579325294490715 -0.3482981155847212 -0.05431609518925407 -0.05714325420983082 0.02323826960922487 -0.431821781545428 -0.1857314228727978 -0.9439485371963547 -0.2455401355626271 -0.4670257991072819 -0.109289303220966 -0.07656605439038577 -0.004711061657786017 -0.1806889129673843 -0.2564682990244042 -0.06305536512236699 -0.02629316141805001 0 
0 0 0 0 0 0 0 0 0 0 0 0 0 0 0 0 0 0 0.04886283564491328 0 
0 0 0 0 0.3553035195658475 0 0 0 0 0 0 0 0 0 0 0 0 0 0 0 
0 0 0 0 0 0 0 0 0 0 0 0 0 0 0 0 0 0 0.003464420312745242 0 
0 0 0 0 0 0 0 0 0 0 0 0 0 0 0 0 0 0.85979623418725 -0.04739802719494256 0 
0 0 0 0 0 0 0 0.2916961511193367 0 0 0 0 0 0 0 0 0 -0.1136266444972477 0 0 
-0.09197713206554127 -0.1730954599768815 -0.4906164670198826 0.003128264187703887 0.1328739220811508 -0.1763711398797722 -0.09772653418931385 0 -0.1642217272102245 -0.0391514392963557 -0.1654905329092569 0 -0.232659348262641 -0.2702309670412067 0.0002514824367729266 -0.202775092097211 -0.1201716789312706 -0.06736877896075011 -0.01398738977370468 0.04951821274221584 
0 0 0 0 0 0 0 0 0 0 0 0 0 0 0 0 0 0 0.004172219294144686 0 
0 0 0 0 0 0 0 0 0 0 0 0 0 0 0 0 0 0 -0.01277639079000216 0 
0 0 0 0 0 0 0 0 0 0 0 0 0 0 0 0 0 0 0.1538599534964142 0 
0 0 0 0 0 0 0 0 0 0 0 0 0 0 -0.03593733853381033 0 0 0 0 0 
0 0 0 0 0 0 0 0 0 0 0 0 0 0 0 0 0 0.08725965580795705 -0.02575264404910573 0 
0 0 0 0 0 0 0 0 0 0 0 0 0 0 0 0 0 0 0.01287805474577644 0 
-0.1120903518834334 0 0 -0.3471708046940288 0 -0.02622991788322511 0.1803662700798138 0 0 0 -0.2184782217955618 -0.06616346789257521 0 -0.01142404956004023 0 0 0 -0.06820242846993869 0.07455689055661595 0 
0.007069716885133634 0.07830784481741883 -0.03251709186992294 0 -0.03838724773288932 0.001046583200943437 -0.01884772897195779 0 0 -0.0193784920857027 0 0.008333331055011209 0.006423048514457939 -0.009326956694967503 0.03179254984447879 0 0.05630634313333353 -0.0007767590728654334 0 -0.03631645574588588 
-0.03394884944436463 0 -0.001015719604937167 -0.05892303144435999 0 -0.0005721216352084562 -0.01613587445743127 0.06998129034130102 0.3029268809770256 0 0 0 0 0 -0.1439450251012393 0.04474550112730466 0 -0.002324146657662978 0.006240628874688029 -0.02638651666281401 
-0.1912336954551659 0 0 -0.07302343087483602 0 -0.3059480434155907 0.03473613846983686 0 -0.05488222382396749 0.01253902119083767 0 0 0 0 0 0 0 -0.4905674138898077 -0.2387119375262774 0 
0.1006870742635992 -0.2948924102618925 -0.151166508417527 -0.1237451295320011 -0.2592396935949664 -0.05885432486407011 -0.01090335995110565 -0.1081816389188105 -0.1814366588883811 -0.1109548192915325 0.1571724042214358 -0.3597228243199766 -0.3333065453902776 -0.3044794818229258 0 -0.2723352699759856 -0.2026020480284426 -0.04380538980132213 -0.03749192098453711 -0.423817732335301 
0 0 0 0 0 0 0 0 0 0 0 0 0 0 0 0 0 0.1140170595994809 0.004075946788216865 0 
-0.2692318831231549 -0.04826246971558754 -0.2245262825159484 -0.06655613505636643 -0.005755559956559114 -0.0134723308365483 0 0.01448136539854486 0 0 0 0 0 -0.0003782636163597898 0 -0.007195620807112266 -0.04081108163709915 0.009999447475443823 0.02211959624017367 0 
0 -0.3964763953979412 0 0 -0.00551065873089035 0 0 0 0 0 0 0 0.007998558968075914 0.009854573373525985 0.1230230906121099 0 0 0.04652240407027749 -0.02778292799658994 0 
0 0 0 0 0 0 0 -0.3425230967920058 0 0 -0.03209193951729365 0 0 0 0 -0.0303659171565497 -0.0006271861888032249 -0.003526085051471694 0.006274032370967335 0 
0.04010122844612194 -0.3584166019533615 0 0 0 0 0 0 0 0 0 0 0 0 0 0 0 -0.04451140692724439 -0.08862060280797586 0 
-0.2601399734436852 0 -0.3127645642302312 0 0 0 0.07306470695441686 0 0 0 0 0 0 0 0 0 0 -0.3970262891855663 0 0 
0 0 0 0 0 0 0 0 0 0 0 0 0 0 -0.009694132326326552 0 0.10992270679964 -0.003512455181295993 0 0 
0 0 0 0 0 0 0 0 0 0 0 0 0 0 0 0 0 0 -0.03671962698336306 0 
0 0 0 0 0 0 0 0 0 0 0 0 0 0 0 0 0 -0.0608074490196752 0.03587966767285369 0 
0 0 0 0 0 0 0 0 0 0 0 0 0 0 0 0 0 0.04395731306589852 0.03271568207442605 0 
0 0 0 0 0 0 0 0 0 0 0 0 0 0 0 0 0 -0.04600246753979502 0.1018742806372854 0 
0 0 0 0 0 0 0 0 0 0 0 0 0 0 0 0 0 0 0.0133909187461361 0 
0 0 0 0 0 0 0 0 0 0 0 0 0 0 0 0 0 -0.00270293895266591 0.002980038204437655 0 
0 0 0 0 0 0 0 0 0 0 0 0 0 0 0 0 0 -0.01687050928212886 0.0541023840905583 0 
0 0 0 0 0 0 0 0 0 0 0 0.07443027696695244 0 0 0 0 0 0.1520993502993882 -0.007595692555226302 0 
-0.1203327676939416 -0.3734718505296514 0 0 -0.02316858053508004 0 0 0.09255810512473517 0 0 0 0 0 -0.01651602193889231 0.004014659113353837 -0.01583679348170153 0 0.02161246049356627 0.05382170622776949 0.09658289056268395 
0 0 0 0 0 0 0 0 0 0 0 0 0 0 0 0 0 0.002708455141342609 -0.00947655814959384 0 
-0.03217853083920549 0 0 0 0 0 -0.0375245288806482 0 0 0 0 0 0 0 0.007689116104609423 0.1804793484638057 0 0.02973828030680263 0.06406364540390756 0.02072350591704466 
0 0 0 0 0 0 0 0 0 0 0 0 0 0 -0.0007065236861734139 0 0 0.01284489301867229 -0.01536076465724674 0.1917054141402859 
0 0 0 0 0 0 0 0 0 0 0 0 0 0 0 0 0 0 0 0 
0 0 0 0 0 0 0 0 0 0.0446928797040857 0 0 0 0 0 0 0 0 0 0 
0 0 0 0 0 0 0 0 0 0 0 0 0 0 0 0 0 -0.2814728806996096 0 0 
0 0 0 0 0 0 0 0 0 0 0 0 0 0 0 0 0 -0.002735148352311589 0.07308515620841104 0 
0 0 0 0 0 0 0 0 0 0 0.2546758986779426 0 0 0 0 0 0 0 0.06138413090392619 0 
0 0 0 0 0 0 0 0 0 0 0 0 0 0 0 0 0 0 0.8934417436844083 0 
0 0 0 0 0 0 0 0 0 0 0 0 0 0 0 0 0 0 0.006905948680667434 0 
-0.007986139525348795 0 0.07318234447649158 0 -0.1085552040203007 0 0 0 0 0 0 0 0 0 0 0 0 0 0 0 
0 0 0 0 0 0 0 0 0 0 0 0 0 0 0 0 0 0 0.04291434819744009 0 
0 0 0 0 0 0 0 0 0 0 0 0 0 0 0 0 0 0 0.002445606658174048 0 
0.0514022943700385 0 -0.1821550904008874 0 0 0 -0.04805862160198676 0 0 0 0 0 0 0 0 0 0 0 0.04383009703890415 0 
0 0 0 0 0 0 0 0 0 0 0 0 0 0 0.3835223201115531 0 0 -0.02982020019806933 0.03558662514304575 0 
0.008986973333860891 -0.1377092205175477 -0.06608232070131105 -0.005186474727579159 0 -0.0001641740837047982 0 -0.1070089490987674 -0.05862286840235578 -0.1534460884605243 0 -0.06369181264522999 -0.4253797919311703 -0.5254361111799467 -0.3871476387756912 -0.234042269728134 -0.03703974055139753 -0.1442478013286691 -0.02768770330733225 -0.05343920987158524 
-0.01414404629662824 0.03311744829946109 -0.01582218596115039 0 0.02563836044497474 0.1064653223106426 -0.14491596233845 0.0572943904713263 0 -0.2504245678614198 -0.2034955472843889 0.0860720261650533 -0.2986719662528011 -0.1583786392362521 -0.04511532184919692 0 -0.3566650643761498 -4.264899295958891e-06 0.05630791600049096 0.0495235067436549 
0.08123070114094923 0 0 -0.1006833178109446 -0.4325629503390783 -0.2576362258930656 -0.04906856562308494 -0.2317088886222632 -0.3465727666032855 -0.2237471137697815 -0.191735637995248 0 -0.2359336997125353 -0.1626150851058963 -0.1939432162542945 -0.1160374189514774 -0.1338489944536465 -0.1248690356732551 0.08611490124230023 -0.1039516453597221 
0 0 0 0 0 0 0 0 0 0 0 0 0 0 0 0 0 0 0.0196518916466725 0 
0.05569373515167816 0 0 0 0 0 0.03248318614936435 0 0 0 0 0 0 0 0 0 0 -0.2362815822762665 -0.03745202844925263 0 
0.004013656823650984 -0.04388025049274757 0 -0.2610644255970639 0.05473018866193817 -0.07051421734908789 -0.03080165585566607 0 0 0.02093707326178714 -0.2803504206785278 0 -0.1135912990250733 0 -0.06637835014905757 0 -0.3242277380020714 -0.07610767698572306 -0.03572346380047686 0 
-0.2369602336724362 -0.4495520579255574 -0.005439880486715483 -0.5918787627131158 0 -0.005289297157956861 -0.1055113391111952 0 -0.316742787065135 0.005409736817875386 0 -0.142124095959855 0.000807100934726449 -0.1370228616895707 -0.1154221780676219 -0.005253382142996393 0 0.03841557228680068 -0.2376298515329454 0 
0 -0.2845198455302799 0 0 0 0 -0.007812567389423347 0 0 0 0 0 0 0 0.03485657679981533 0.04136915486171933 -0.06896515883982929 0 0 0 
0 0 0 0 0 0 0 0 0 0 0 0 0 0 0 0 0 -0.01403295593627148 0.1214712730477994 0 
-0.1083936087770081 0 0 0 0 0 0 0.004897684140490954 0 0 0 0 0.01406044748354776 0 0 0 0 -0.0292291935581842 0 0 
0 -0.009478672640607946 0 0 0 -0.02942558770443514 -0.1328211208164874 0 0 0 0 0 0 0 0.07718571905456204 0.06112112638254022 0.05489945913837496 0.04777189735064898 0.003073332338875633 0.1262327442554998 
0 0 0 0 0 0 0.0231631769028609 0 0 0 0 0 0 -0.01828829912267071 -0.07053283792961593 0.2441490587766424 0 0 0 0 
-0.04494036086074925 0 -0.2291746383080157 -0.3932546418171956 -0.2520482433255302 -0.2283490359016191 -0.1756957158600405 0 0.003859929862204854 -0.1227843433172026 -0.1676046803514941 -0.002479931427608138 -0.1382967094746535 -0.01313075405564814 0.002832853966474117 -0.06518086314591556 0.05762339198158883 0.02817184275842945 -0.0007874348863017807 0.01155084778612364 
0 0 0 0 0 0 0 0 0 0 0 0 0 0 0 0 0 0 0 0 
-0.09243536249219261 -0.1331871285669674 0 0 0 0 -0.05158744537286798 0 0 -0.01159413709390329 0 0 0 0 0 0 0 0 0 0 
0 0 0 0 0 0 0 0 0 0 0 0 0 0 0 0 0 0 0 0 
0 0 0 0 0 0 0 0 0 0.38263278564074 0 0.004324262002418223 0 0 0 0 0 -0.01325330854144191 0.02255444418439019 0 
0 0 0 0 0 0 0 0 0 0 0 0 0 0 0 0 0 0 -0.09266465886055386 0 
0 0 0 0 0 0 0 0 0 0 0 0 0 0 0 0 0 -0.001066320704814932 0.1265532700544545 0.08423788246653291 
-0.02776718208513988 0 0.08672872108029202 0.04073944866624247 0 0.1644674787874601 0.1651908982085477 0 -0.08586347861402845 0 0 0 -0.01481692640287637 0 0 0 0.006821259126696747 -0.04962513914020333 0.05581731711128009 0 
-0.3436291855724701 -0.3511601224457864 0.1163006120941728 -0.0003562549909863488 -0.01992760609902231 0 -0.1455122427390954 0 0 -0.2233388007567841 0 0 0 0 0.1241418069979807 0 0.05133288521220813 0.02817333305443856 0.006670121030957107 0 
0 0 0 0 0 0 0.05543879912103617 0 0 0 0.002636099596773951 0.09458990631768872 0 0 0 -0.3550762382531847 0 -0.02396358748574608 0.1578594478229588 0 
0 0 -0.1186859195744075 0 0 0 -0.03874441072688345 -0.1400156175641749 -0.02800089279559099 0 -0.05210118915181032 -0.009467861229731409 -0.03714550415726783 0 0.2353391695946275 0.2142406947390753 0.10275780309101 0.004308233686010422 0.0449186117283046 -0.1182151000864892 
0 0 0 0 0 0 0 0 0 0 0 0 0 0 0.0203797888807685 0 0.2204564205659034 0 0 0 
0 0 0 0 0 0 0 0 0 0 0 0 0 0 0 0 0 -0.01077324456779455 0.03478556170983373 0 
-0.2505509488689882 0 0 0 0 0.1473355581858081 -0.1300242779695571 0 0 0 0 0 0 0 0 0 0.02968906549128391 0.04450054820644961 0.04799868746860462 0 
-0.03713948986560622 0.3248410002728508 0 0 -0.3847060769427056 0 -0.005272330142537376 0.05781118957753374 0 0 0 0 0 0 0 0 0.0752287101607418 -0.1367534535737343 -0.03154318542531161 -0.1167511782727487 
0.1330809146847391 0 0 0 0 0 0.02831274469609091 0 0 0 0 0 0 0 0 0 0 -0.0303164567629811 0 0 
0 0 0 0 0 0 0 0 -0.0002876467144254491 0 0 0 0 0 -0.2522259675041404 0 0 -0.002756298406583418 0.00167362179417595 0 
0.02802039431118942 0 0 0 0 0 -0.02520795322996155 0 0 0 0 0 0 0 0.1457377998247691 0 0.2146306082853271 0.04697461800121573 0.05070548941477755 0 
0 0 0 0 0 0 0 0 0 0 0 0 0 0 0 0 0 0 0 0 
0 0 0 0 0 0 0 0 0 0 0 0 0 0 0 0 0 0 0 0 
0 0 0 0 0 0 0 0 0 0 0 0 0 0 0 0 0 0 0 0 
0 0 0 0 -0.04834925858572879 0 0 0 0 0 0 0 0 0 0 0 0 0.004820073070447854 -0.002799558268018976 0 
0 0 0 0 0 0 0 0 0 0 0 0 0 0 0 0 0 0 0 0 
0 0 0 0 0 0 0 0 0 0 0 0 0 0.2310131171505119 0 0 0 0 0 0 
0 0 0 0 0 0 0 0 0 0 0 0 0 0 0 0 0 0 0 0 
0 0 0 0 0 0 0 0 0 0 0 0 0 0 0 0 0 0 0 0 
0 0 0 0 0 0 -0.04898414040982555 0 0 0 0 0 0 0 0.04894053423003169 0 0 0 0.07608241976108739 0 
-0.03350692999031223 -0.2866074579746192 -0.28750653818663 -0.3165236930631913 0.003411994828694074 -0.05533381644768633 0 0 0.05382279174511154 -0.15699330550543 -0.1527631637976067 -0.1755716374324131 -0.2576326460314627 -0.09421046841031847 0 0.003549059088783399 -0.0873585427833064 -0.01285366885147643 -0.01682725641855665 -0.2188513159906316 
0 0 0 0 0 0 0 0 0 0 0.01622091056512362 0 0 0 0.3183285839278028 0 0 -0.005112010699355627 0.02691197665183748 0 
-0.005613190567558666 -0.1272239719805273 -0.04010613424166962 0 0 -0.09013613579055363 -0.2363026008923703 -0.001598671093140575 -0.1163950598130541 -0.3343599526231808 -0.04467714808838476 -0.1434494915989852 -0.05104560114584198 -0.2163920570153393 -0.07287650873542027 -0.1551483633143131 -0.1250017027149143 0.007600700900226583 0.007956898802086871 0 
0 0 0 0 0 0.01265328835030876 0 0 -0.008767707465173953 0 0.02054203406819746 0 0 0 -0.1461714939232689 0 0.001612418700220442 0.1145970510480536 0 0 
-0.05717408997211171 0 0 0 0 0 0 0 0 0 0 0 0 0 0.09923173675805383 0 -0.02934161286488347 0.01141374618707244 0.03128951303130575 0 
0 0 0 0 0 0 0 0 0 0 0 0 0 0 0 0 0 0.1965999124592602 0 0 
-0.2106603968095861 0 0 0 0 0 -0.03653158754615388 0 0 0 0 0 0 0 0.162641520291642 0 0.09596297334393794 0.121663129467029 -0.05276723769531556 0 
0 0 0 0 0 0 0 0 0 0 0 0 0 0 0.271645985247088 0 -0.1100210795303265 0.07492441108352196 0.03238257555770772 0 
0 0 0 0 0 0 0 0 0 0 -0.5349989764780186 0 0 0 0 0 0 -0.01291528703371276 0 0 
0 0 0 0 0 0 0 0 0 0 0 0 0 0 0 0 0 0 0 0 
0 0 0 0 0 0 0 0 0 0 0 0 0 0 0 0 0 0 0 0 
0 0 0 0 0 0 0 0 0 0 0 0 0 0 0 0 0 0.01006344788023683 0 0 
0 0 0 0 0 0 0 0 0 0 0 0 0 0 0 0 0 -0.05361980691913635 0 0 
0 0 0 0 0 0 0 0 0 0 0 0 0 0 0 0 0 0 0 0 
0 0 0 0 0 0 0 0 0 0 0 0 0 0 0 0 0 0 0.2350474679536049 0 
-0.2286839136246704 0 0 0 0 0 0 0 0 0 0 0 0 0 0 0 -0.001186227108924583 -0.08633458872593643 0 0 
0 0 0 0 0 0 0.01279134407882734 0 0 0 0 -0.1972691430765014 0 0 0 0 0 0 0.03195633112892207 0 
0 0 0 0 0 0 0 0 0 0 0 0 0 0 0 0 0 0 0 0 
-0.01424671415425915 0 0 0 0 -0.08007819883060042 -0.09124335663644349 0 0 -0.148779606887075 0 0 0 0 0 0 -0.04428770927275025 0.04771700854030722 -0.1301912041675675 0 
0 0 0 0 0 0 0 0 0 0 0 0 0 0 0 0 0 0 0 0 
0 0 0 0 0 0 0 0 0 0 0 0 0 0 0 0 0 0 -0.007921653460520973 0 
0 0 0 0 -0.08448562230962238 -0.09753483060534228 -0.08231056490756787 -0.3962482604856064 -0.08456626849144493 0 0 0 0 0 0 0 -0.0466963981252986 -0.0494907710543687 -0.147507592397013 0.1496283236631938 
0 0 0 0 0 0 0 0 0 0 0 0 0 0 0.590562948103905 0 0 -0.04848914440626022 0 0 
-0.006042797041661832 -0.1031903537579472 0 -0.404040233931247 0.001503428881012665 -0.0238572504146977 -0.04004699261557971 -0.2636220642628493 -0.1913312993898263 -0.5548169341586001 -0.1373890293340164 -0.2036124891050585 -0.4963535954653227 -0.05681561897827951 -0.1002683133513732 -0.2617305447270799 -0.04002852265803834 -0.0435176458483483 -0.1880656619064205 -0.2420156984579653 
0.03717597710406437 0 0 0 0 0 -0.1726638263596276 0 0 0 0 0 0.1674388707143791 0 0 0 0 0 0 0 
0 0 0 0 0 0 0.0278432221723383 0.4067605964089116 0 0 0 0 0 0 0 0 0 -0.0433768375895193 0.003534661089880254 0 
-0.3256128721675864 0 -0.5122958509796618 0 0 -0.1650231314680343 -0.01825632581441888 0.4077422823672885 0 0 0 -0.1710522691552197 0 0 -0.1716768560398327 -0.2026931286779521 0 -0.0171794912502325 -0.0264068728263517 0 
-0.07883720782123384 -0.02876563700918 0.08341225078707749 -0.1017981769905216 0 0 -0.1362591548212067 0 0.07436822825539817 -0.04699494740582536 0.07676545234778374 0 -0.09539774510380625 0.06599190648427199 0 -0.03297741221007622 0.009481293706979295 -0.01410707351883225 -0.1696477665834974 0 
-0.1255458043813509 0 0 0 0 0 -0.03628967793824966 0 0 0 0 -0.02892363524990109 -0.006371034839221133 0 -0.002425333506682982 0 0 0.1007192708573682 -0.2054972404138994 0.3528389128464433 
0 0 0 0 0 0.01017201316247651 -0.06134324361653131 0 -0.000810841773209647 0 0 0.3162682503881243 0 0.2578528608504376 0.2600560915161913 0 0 0.01640541218304423 -0.04180338097667828 0 
0 0 0 0 0 0 0 0 0 0 0 0 0 0 0 0 0 0.0665019646640409 0.005736959234131819 0 
0 0 -0.2744143227240897 0 0 0.0005007002982864683 0 0.171691631842695 0.1175972819177093 0 0 0 -0.02271359422921628 0 -2.716236725322945e-05 -0.06836386795465997 -0.01068976256946419 0 0.03996935513499175 0.2274137269059652 
0 0 0 0 0 0 0 0 0 0 0 0 0 0 0 0 0 0 0 0 
-0.008942805019776475 0 0 0 0 0 0 0 0 0 0 0 0 0 0.09067015237895781 0 0 0.04055324626865738 0 0 
0 0 0 0 0 0 0 0 0 0 0 0 0 0 0 0 0 0 0 0 
-0.1584213517831779 0 0 0 -0.3519443531621423 -0.09910728245723606 0 0 0 0 -0.0322573438662121 0 -0.01510272451754054 0 0 -0.2355390158372307 -0.02372955283426018 -0.05503754862348203 -0.05855561396044228 0 
0 -0.06076594656168625 0.4734457094893671 0 -0.1615153704393899 0.2152523576690507 0.006310329861937836 0 0 0 0 -0.01087081629343068 0 -0.02042425423717645 0 -0.1542844299172832 0 0.04579310096733715 0 0 
0 0 0 0 0 0 0 0 0 0 0 0 0 0 -0.1473884240542698 0 0 -0.1213999138887783 -0.09661069854211456 0 
0.2468850640632956 0 -0.07299017300977466 0 0 0 0 -0.1850104584467488 0 0 -0.1846056631285938 0.05749785867967796 0 0.1427501031446915 -0.03224539186191443 -0.1597061624087611 -0.02130204687681043 -0.07277320581947515 0.01125167876714581 -0.1761422068168964 
0 0 0 0 0 0 0 0 0 0 0 0 0 0 0 0 0 -0.009335506230261272 0.7858773996703817 0 
0.02944877255394673 0 0 0 0 0 0 0 0 0 0 0 0 0 0 0 0 0 0 0 
0.1445297077238425 0 0 0.08263485221297762 0 -0.4833137249995408 -0.1635186570400326 0 0 0 0 0 0 0 0 0.1711589844820223 0 -0.1527894289937152 0 0 
0 0 0 0 0 0 0 0 0 0 0 0 0 0 0 0 0 0 0 0 
-0.236818410089178 0 -0.3061968697693808 0 0 0 -0.0371846965974553 0 0 -0.1708441400027606 0 -0.03294180066370486 0 0 -0.04472937019579978 0 0 -0.02557251948246229 0.05267022164296277 0 
-0.115672561888575 0 0 0 0 0 -0.0314961643669982 0 0.1472369744764533 0.0009944870402785744 0 0 0.03283562969877234 0.09453209711592726 0 0 0 0.04396442080545894 0 0 
-0.1675651173884697 -0.1950728718675193 0.0996449401004222 -0.1565187498854933 0 -0.1598056958575929 -0.1529157172249292 -0.003612617636892808 -0.2345599152471124 -0.08131634423768204 -0.2923281221171301 0.008338930808200664 -0.03177114513734254 -0.1669634120681389 -0.05753021850021104 -0.2033198855619939 -0.3417507940439797 -0.188801755517478 -0.01889265001664316 -0.2142854131856842 
0 0 0 0 0 0 0 0 0 0 0 0 0 0 0 0 0 0.08038309371453291 0 0 
-0.02193746052863688 0 0.4662640103104614 0 0.001101548801001802 0 0 0 0 -0.001572261234515229 0 0 -0.3042037628829028 -0.02555395204733968 -0.09947072987569974 0 0 -0.04473389443344392 0 -0.1158708441174803 
0 0 0 0 0 0 0 0 0.5419935701276745 0 0 0 0 0 0 0 0 0 0 0 
-0.118983294186616 -0.2322780433338681 -0.2970668481944751 -0.03829592204229203 -0.06701465333832755 -0.1256372644235177 -0.1549176772817982 -0.1660391010624765 -0.2023135473660758 -0.07694030945092188 -0.2525531385375552 -0.175527140930826 -0.07168563560333778 -0.2015457030694956 -0.3200723367180165 -0.2977215575093481 -0.05129206712057834 0.01487202672432907 0.06171478590125347 -0.1600560829719241 
0 0 0 0 0 0 0 0 0 0 0 0 0 0 0 0 0 0.2045208470972836 0.03390325382680791 0 
-0.1232180130105856 0 -0.9482038216669366 0 0 0 -0.007406377616320411 0 0 0.3432861418377158 0 0 0 0 0 0 0 -0.003680150428517674 0.2913690082016898 0 
-0.04861780094083323 0.03322304775894697 -0.1605897135664359 -0.3215371187960767 -0.003292113373447673 -0.0920618459486529 -0.09657319443126541 -0.04044479447245817 -0.09721652640246302 0 -0.3228070834185482 -0.1749630511735221 0 -0.2132826038758641 -0.03409170957736791 0 -0.009480463017668484 -0.06297397712117309 0.01796277262841208 -0.2272720440366008 
-0.08029855203025316 -0.1928842127104418 -0.4553869604348275 -0.1975248861757334 -0.08764606735278709 -0.04926112072053889 -0.1937094634529967 -0.0994001626059349 -0.4114465538035274 -0.2897665725985122 0 -0.238616092303407 -0.4065790323160601 -0.3445715726585563 0.01612166301651867 0 -0.426533517955519 0.07592757876668751 0.03230486766758281 -0.5320168933107762 
-0.07905864444026338 0 0 0 0 0 0 0 0 0 -0.05829750135380209 0 -0.2405521777711632 0 -0.2800601055462786 -0.1377632144225333 0 -0.4933573220086008 0 0 
0.1226194461585932 -0.09860675997324371 0 0 -0.01568327911351998 -0.1667313843404044 -0.4460288133489498 0 0.0131708209215941 0 0 0 0 0 -0.09148118507437926 0 0 -0.0649073855442205 0.1097482349751821 -0.006002655937739992 
0 0 0 0 0 0 0 0 0 0 0 0 0 0 0 0 0 -0.2931810994163691 0.1598491980591831 0 
-0.4696970478204347 -0.2898489587456255 -0.2837990266173402 -0.334841306876967 -0.6107703677787305 -0.542941404138955 -0.4183994331458585 -0.5809459248268134 -0.4058034611373749 -0.4354046494174704 -0.4885984360553708 -0.3679905318106363 -0.3569853352500346 -0.2736375704693833 -0.2645377766208067 -0.3057019553043478 -0.3428733579623902 0.03805585863937579 0.02743399963083113 0.1351785689950575 
0 0 0 0 0 0 0 0 0 0 0 0 0 0 -0.01071148586934137 -0.01905351820801163 0 0.1029263283626833 -0.04460350861509021 0 
0.007778316345377956 0 -0.1726652839840312 0 0.08606632895350683 -0.06941654353370022 0.1168752412338168 -0.03809209127019435 0 0 0 -0.03022252421457351 0 0 -0.1044628644469078 -0.02814351050962072 -0.07290847550793635 -0.00510415975474914 -0.05485125018365293 -0.0575892227205342 
0.03852345709888939 -0.09386317791822063 0 -0.5435109918450257 0 0.1286457599740735 -0.1494858934442945 -0.1256719301000999 0 -0.4878811192971012 -0.1292775251584249 -0.06447313327485382 0 -0.2207618488035008 0.2462181048684531 0.02649961658542935 0 -0.01123644224203888 0.04164189887561137 0 
0 0 -0.3284303253520792 -0.1383526320036872 0 0 -0.2368426479962045 0 0 -0.00774524969267172 0 0 0 0 0 0 0 -0.09404500196553428 0.01031203070729637 -0.03489834328573297 
0 0 0 0 0 0 0 0.4327650889048835 0 0 0 0 0 0 0 0 0 0 0.06890171056193801 0 
0 0 0 0 0 0 0 0 0 0 0 0 0 0 0 0 0 0 0 0 
0 0 0 0 0 0 0 0 0 0 0 0 0 0 0 0 0 0 0 0 
0 -0.02103913578491576 -0.1629269663538516 0.1263336914585059 0 -0.05098260341197924 0 0 0.02021421680832069 0 0.1285638131388132 0 -0.1144360443423828 0.01209400685404851 0.001250926242730131 0.03557386622879288 0 -0.03136960009442736 0 0 
0 0 0 0 0 0 0 0 0 0.3347797783426729 0.4192861726132021 0 0 0 0 0 0 0 0 0 
0 0 0 0 0 0 0 0 0 0 0 0 0 0 0 0 0 0.001281809167848061 0.006311863131267073 0 
0 -0.02488295858667451 0 -0.2007441792972534 0 0 0.02180286029995629 -0.05836980217353489 0.008921055590347473 0.1157788352975831 0.09226912895351834 -0.2206913726381292 -0.1190997589762891 -0.06811927411856639 0 -0.06550339204280889 -0.08404258083733163 -0.02271799368807536 -0.09572292201169837 0 
0 0 0 0 0 0 0 0 0 0 0 0 0 0 0 0 0 0 0 0 
0 0 0 0 0 0 0 0 0 0 0 0 0 0 0 0 0 0 0 0 
0 0 0 0 0 0 0 0 0 0 0 0 0 0 0 0 -0.005309947279733458 0.00864489054706203 0.0355012676803682 0 
-0.1821622828150577 0 -0.05609080942378026 0 0 0 -0.1139291176148286 -0.03049026814820453 0 -0.009359729895977428 -0.1939703713123625 -0.1743444080836738 0 0 -0.08985735291141798 -0.0681441004680832 0 -0.02227004060731142 0.05695553961390785 0 
0 0 0 0 0 0 0 0.4181852844114375 0 0 0 0 0 0 0 0 0 -0.006154152666063478 0.06077925862813913 0 
-0.006599570719542926 0 0 0 0 0 -0.0406375244015818 0 0 0 0 -0.01025438111918393 0 0 0.001311063900805978 0 0 -0.0001934528952200407 0.09639309901113706 0 
0.0607445631696504 -0.1851942046414005 -0.4385587347125198 0 0.1014650632478224 0 -0.04590801778197744 -0.003369044733878192 0 -0.1500563462158465 0 0 -0.3240025806948916 -0.0003789221251770605 0.01952499097199521 -0.1199144558376005 0 -0.003199689252334515 0.01149705175244122 -0.09581558345708728 
0 0 0 -0.4340946494761993 0 -0.1290723522232823 -0.002226316829539304 0 -0.09140396963219009 0 0 -0.08111035664401384 -0.1293934587367931 0 -0.09047642480177723 0 -0.05734290608478669 0.1341388894503648 -0.02722650401397952 -0.5215960888709507 
0 0 0 0 0 0 0 0.3850415374192792 0 0 0 0 0 0 -0.04981153203601629 0 0 0.02811078123736991 -0.005084389530323549 0 
-0.1129980719025753 0 0 0 -0.001543092836016635 -0.1881989899357692 -0.2159819670047751 0 0 0 -0.2892213828840801 -0.1068764982593355 -0.1669342744961217 -0.275536199902141 -0.07486500973890345 0.01356142572181537 -0.08580954390379135 0 0.04908082957542372 0 
0 0 0 0 0 0 0 0 0 0 0 0 0 0 -0.3254207732406836 0 -0.1441436310982264 -0.06714927354487861 0.09252320417630379 -0.003836334786876139 
-0.05051403177487462 0 0 0 0 0 0 0 0 0 0 0 0 0 0 0 0 0 0 0 
0 0 0 0.4142457802381019 0 0 0 0 0 0 0 0 0 0 0 0 0.09894676129262162 0.04662589091187595 0.04718848824280869 0 
-0.1417065605872588 -0.2555637373466064 -0.4149813075656906 -0.4718435270070125 -0.2658716637979613 -0.1351530859076841 -0.2304801860152236 -0.194836100337853 -0.304214987455857 -0.1381705613319374 -0.1807146062008335 -0.3836991764565013 -0.01801963712700227 -0.2311441742867244 -0.1439893017489476 -0.2410387613172813 -0.1409015535567496 -0.1709335091880889 -0.1475914768561921 -0.29471162755095 
0 0 0 0 0 0 0 0 0 0 0 0 0 0 0 0 0 0 0.8369990798022416 0 
0 0 0 0 0 0 0 0 0 0 0 0 0 0 0 0 0 0 0.04131487486210551 0 
0 0 0 0 0 0 -0.408231640127219 0 0 0 0 0 -0.07362623691576804 0 0.1621237306093999 0 0 -0.2060776230833541 0.03561486164028336 0 
0 0 0 0 0 0 0 0 0 0 0 0 0 0 0 0 0 -0.02115522743839439 0.08109624437416706 0 
0 0 0 -0.185458840606737 0 -0.2770647358801134 -0.04544726317795786 0 0 -0.0198915681198222 0 0 -0.1738457532084309 -0.128129459762828 -0.0477940120094086 -0.05708743185032424 -0.07779463453299029 -0.1715216349341408 0.0738201409940982 -0.01358841739853442 
0 0 0 0 0 0 0 0 0 0 0 0 0 0 0 0 0 0 0.1406268153336528 0 
-0.106063130174645 0 0 -0.09772662629157941 -0.08960726525449271 0 -0.3489286428844272 0 0 -0.04757179672649129 0 0 0 0 -0.1439565810889624 0 0.005482169665672521 -0.1823776184849627 0.05143577246017213 0 
0 0 0 0 0 0 0 0 0 0 -0.153138086096557 0 0 0 0 0 0 0.0677823919074962 0 0 
0 0 0 0 0 0 0 0 0 0 0 0 0 0 0 0 0 0 0 0 
0 0 0 0 0 0 0 0 0 0 0 0 0 0 0 0 0 0 0 0 
0.07696908992618223 0 0 0 0 0 0 0 0 0 0 0 0 0 -0.1687363454516715 0 0 0 0 0 
0 0 0 0 0 0 -0.02752172178863604 0 0 0 -0.01384515994637798 0 0 -0.001984902510818399 0 0 0 -0.09402733436364712 0 0 
0 0 0 0 0 0 0 0 0 0 0 0 0 0 0 0 0 0.03280189951332847 0 0 
0 0 0 0 0 0 0 0 0 0 0 0 0 0 0 -0.1063470453452776 0 0.1967769781198216 0.02590140521711391 0 
0 0 0 0 0 0 -0.06386760518445567 0 0 0 0 -0.2215274886710134 0 0 0.3644604640734386 -0.00363316054534546 0 0.03937444065855126 0.03117089560141481 0 
-0.1258563675469004 -0.1517549834662431 -0.1184247231379626 -0.4085421250101772 0.005491817411765638 -0.1593887623194307 -0.02373725678229808 -0.002309210944710117 -0.5860536396202338 -0.1481939949824355 -0.1293767712694129 -0.2702135434819432 -0.1064125441424951 -0.1208779333980961 -0.2231748347163038 -0.07451581716263206 -0.3499051314286867 0.02749788885446845 -0.01421996446875121 -0.4360871823184299 
0 0 0 0 0 0 0 0 0 0 0 0 0 0 0 0 0 0 -0.009743299308730214 0 
0 0 0 0 0 0 0 0 0 0 0 0 0 0 0 0 0 0.06894011775572648 -0.006535393356234195 0 
0.2293680476524198 0 0 0 0 0 0 0 0 0 0 0 0 0 0 0 0 0.01993741585372525 -0.05110113489354957 0 
-0.2245862390499746 0 -0.3814958150435587 0 -0.3429378319530373 -0.2725665793664424 -0.2016405565021313 -0.3215404939062239 -0.1349357787453054 0.02326881116193198 0 -0.09006285068513024 0 -0.07520529193264339 -0.1047904673092265 0.1030632179643456 -0.2246186667882132 -0.09304959026589078 -0.04278133755236095 0 
-0.002916170213044533 -0.447089964056873 0 -0.2835926585191365 -0.1769197601120466 -0.1165849779650347 -0.05004021350779979 -0.5617803681247178 -0.1918492161701975 0 -0.4143825473845366 0 -0.2140688322628958 0 -0.4054522875164779 0 -0.4243373464349395 -0.01566389968363381 -0.07970033561037224 -0.8078558879824139 
0 0 0 0 0 0 0 0 0 0 0 0 0 0 0 0 0 0.1000052201255047 0.2478089032304736 0 
0 0 0 0 0 0 0 0 0 0 0 0 0 0 0 0 0 0.04810565435344318 0.0004852273484842059 0 
0 0 0 0 0 0 0 0 0 0 0 0 0 0 0 0 0 0.03848269582597035 0 0 
0 0 0 0 0 0 -0.1261057795221798 0 0 0 0 0 0 0 0.0007147004467668657 -0.01643986108372107 0.09712797867034792 -0.004914068646496629 -0.002197894938989759 0 
0.05543566388960926 0 0 0 0 0 0 0 0 0 0 0 0 0 -0.1797769051134737 0.0102547844199677 0 0.008559997810445681 0 0 
-0.1875856892306253 0 0 0 0.006849289348609119 -0.1619301568424068 -0.09372232421702928 0 0 0 -0.07230112069257477 -0.09117357398689452 -0.01696192138436298 0 0 0 -0.2388733498211285 -0.1186082262157906 -0.1140465011439319 -0.02011175118171541 
0 0 0 0 0 0 0 0 0 0 0 0 0 0 0 0 0.08060830431200333 0 0 0 
-0.03794667472869059 -0.3294356002942081 -0.3534103964829876 -0.3039086069977834 -0.5702491551674356 -0.3724571163704044 -0.2061364445521902 -0.5054897118319276 -0.7206357025434367 -0.4911014033080422 -0.3034897650352166 -0.2772403607544858 -0.1535929767444378 -0.2308332763815076 -0.2010521093205073 -0.09662584856876943 -0.2327058101080228 -0.09916146826585619 -0.1293992601164991 -0.252341233262575 
0 0 0 -0.1106479835443388 0 0.1549161472488027 0 0 0 0 -0.1515466082057121 0 -0.00820058363972284 0 0 -0.07896015726392926 0 0.02983829473200603 0.05509652891003192 0 
-0.3436272324575789 0 0 0 0.005155515534182742 -0.08556551764908937 0 0 -0.07239041722528532 0 0 0 0 0 0.09763315828120279 0 0 0.04015761193517146 0.01966156157194897 0 
-0.004292515283549343 0.1647664343829271 0 0 0 0.08522897711555212 -0.01281917809582539 0.009507074880203355 0.02715516887553844 0 0 -0.009500939157022624 0 -0.1232639935334416 0.01790958338848522 -0.01213538195073168 -0.00047152295386129 0.06238485762482918 0.01698367783809249 0.003597100637049816 
0 0 -0.01603140444314584 0 0 0 -0.06253468361390288 0 0 -0.04871063725512111 0 0 -0.3252597937748237 0 0 0 -0.003776537169112168 -0.009949630296803128 0.0335986232713355 0.1634345289491513 
0 -0.10640254344871 -0.2981646344019477 0 0 0 0 0.001680391796973546 0 0 0.0005671211661188684 -0.04295627584422541 0 0 0.05823652689987653 0 0 -0.005195868533406102 0.02270626958327818 0.05896409317409868 
0 0 0 0 0 0 0 0 0 0 0 0 0 0 0 0 0 0.3629588162555981 0 0 
0.02631141097787248 -0.4398563731201579 0.09450049072046622 0 0.004413271802156747 0.02431016131380902 -0.04531096406153477 0.01163389790978356 0 0 0 0 0.2592336643053291 0 0 -0.2840462482514799 0 -0.01798411134976839 0.02598479314809641 -0.06115251484187269 
-0.03477940714023508 0 -0.05588437242144843 0 0 -0.03272764534630025 -0.0995276230864254 -0.067123679497761 0 -0.09924872536485552 0 -0.01321277205044362 -0.1965989926491502 0 -0.0894351769176622 0.07791410432012136 0.01944434352520998 -0.03025625730976886 -0.01857179572280786 0 
0 0 0 0 0 -0.007993910292964125 0 0 0 -0.1274550771781494 0 0 0 0 0.0378570791664465 0 -0.0424673453722205 -0.002187515050307953 -0.04436823175323098 0.159422250969972 
-0.1448656857228767 -0.04057716105921147 -0.8721313261350574 -0.344611655008272 0 -0.1319750156179702 -0.08022266400971469 0 -0.2303504897210831 0 -0.2521013125227128 0 -0.1301804035159046 -0.130033486526855 0 -0.2510484873272995 -0.03802105923179647 -0.1118395813451235 -0.03020486534081633 -0.03186149275784998 
-0.1498517796330288 0 0 0 0 -0.1194442685285571 0 0 0.04284025399329448 0 0 0 0 0 0 0 0 0 0 0 
0 0 0 0 0 0.3749948977888173 0 0 0 0 0 0 0 0 0.01156177464788677 0 0 0.01743251648613196 0.007205659515028868 0 
0 0 0 0 0 0 0 0 0 0 0 0 0 0 0 0 0 0.05754401016802631 0.190111048468356 0.2540047730003515 
0 0 0 0 0 0 0 0 0 0 0 0 0 0 0 0 0 -0.1299519898972936 0.02391906866083012 0 
0 0 0 0 0 0 0 0 0 0 0 0 0 0 0 0 0 -0.0008511407668871041 0 0 
