solver_type L1R_L2LOSS_SVC
nr_class 2
label -1 1
nr_feature 300
bias -1
w
0.9 
0.9166666666666666 
0.9500000000000001 
0.875 
0.9791666666666667 
0 
0.75 
0 
0.75 
0.9166666666666667 
0.5000000000000001 
0 
0 
0.75 
0.75 
0.9736842105263158 
0 
0.5 
0.9615384615384616 
0.500032464197726 
0.9875 
0 
0.9285714285714286 
0.875 
3.306538657280034e-05 
0.875 
0.4999669346134273 
0.8333333333333333 
0.4999999999999999 
0.8333333333333334 
0.5 
0.8333333333333334 
0.75 
0.5000288570646455 
0.5865277577346995 
0 
1.094524877060675 
0.06939343091035416 
1.266700483886703 
0 
0.3678920405290071 
-0.8890467340004596 
-0.5979627577445124 
0.4868423191776268 
0.04458389915277589 
0.000149168767536012 
0.2226928143352848 
-0.6516535332091822 
-0.2606739923353282 
0.06893428094508748 
0.002708500874063792 
0.03784739025852932 
-0.4661705104252051 
0.395154265060424 
0.4567186002701269 
0 
0.3229954990524405 
-7.660790590032748 
-0.2335232353895926 
-0.3103871642715346 
-1.050255858441223 
0.4600224975191672 
-0.8666167324665059 
-1.966788891857664 
-1.34849591375495 
0 
-1.281686306381837 
0.01773940999727618 
-0.08003762246510332 
0.5417155129015466 
0.7664989061718752 
0 
-0.03660758079707688 
-0.8130582189292399 
0.2994239905705688 
-0.4141153543119395 
0.215585814115899 
0.3968686262696823 
0.5002179379894046 
1.088876028413548 
0.1802606291065512 
0 
0 
0.1266688920305639 
-0.1603055373795588 
1.497103311943684 
0.7563658354896144 
0.8306184338370256 
0.5254858946678367 
1.262286365664984 
0.2284441496939257 
-4.401179457300458 
-0.2368175521921575 
0.8674790316499771 
-1.343372982464633 
-0.7144857883876257 
0.1281541431753454 
-0.4193348706211356 
-0.1542326168717102 
0 
0.09999654482628881 
-0.08738406757733951 
0.3451009492358886 
0.3343826662917501 
0.2722582799118738 
0.3406556449092122 
0.4524800753624824 
0 
0.1709452138319451 
0.001463576358442945 
0.7833568475091062 
-0.4155456035013202 
-3.44487246036618 
0.5310803900380554 
0.2846306078574362 
0.6345368288555865 
0.350925928852571 
0.01208760379237897 
0.7398517467312524 
0.1019865703574756 
0.01134579684150181 
0 
0.007885722332843018 
0.2441816552198498 
0 
0 
0 
0 
0 
0 
0 
0 
0 
0 
0 
0 
0 
0 
0 
0 
0 
0 
0.001691392364097244 
0.05526489680048245 
-0.6492825145786221 
0.834554066769867 
-0.008587083357328251 
0.06571752262014717 
0.4716766683146944 
-7.366723601279243 
-0.2225357163596288 
0.367753300935087 
0 
0.5266098932266664 
0.505299883704193 
0.4904461269273607 
0.2765784511252835 
0.5810345510185628 
-1.222353346615965 
0 
0.10354390322083 
0 
0 
0.289801146077431 
0.0767828162345229 
-0.1136927316627287 
-0.671497111921731 
0.7366351794993008 
0.5497502163570195 
0.2519706681915921 
0.2422939450384431 
0.283178406039056 
-0.05520109773774405 
-0.6891692812280062 
0 
0 
0.03983608153886003 
0.03796172171886428 
0.003534809142594032 
0.2055577790737666 
4.014984176985329e-05 
-0.1708130207465146 
-1.214996774662155 
-0.8821638725818923 
-0.9923606060738834 
-2.645387974230072 
0.002382913082822699 
0.3979674705626324 
0 
0.1580924138475722 
-1.513616833062574 
-3.285772534449621 
0.229254865326784 
0.5004031636588601 
0.5366604064017496 
0.06423501772129486 
1.053510697281671 
-2.424027842585176 
0 
-0.6079765529676183 
-1.529533380527417 
-0.9192091988445489 
-0.3298069540203211 
0.6703616073563442 
0.1910226193661888 
0.2190019375531981 
0.3432487641476414 
0.2837121264616968 
0.9285714285714286 
0.002432469579060273 
-2.293808892958363 
0.6870288886727769 
-1.654933389765941 
0.1714105380015589 
0 
0.1444527872004987 
0.5710300594569437 
0.2781367523871949 
-0.1508752949653187 
-5.540057525674952 
0.4734124589272817 
-0.3029944555219578 
0.3648234994926081 
-0.4123248094478558 
0 
-0.06468817835714548 
0.02363930355928622 
0.5265271134255256 
0.4851868013788008 
-0.8496436297867578 
-0.3263923093376745 
0.1044350826006736 
-0.744921146174175 
0 
-0.4268177065855946 
-0.009847287945667197 
-0.4957479832320336 
0.4189666166815161 
0.2058698924246172 
0.08539267597376002 
0.1640189223510398 
0.1887151537700139 
0.1057220703056755 
0.067041952021813 
-0.2643792726680491 
-0.5732155006946231 
-0.02201065604616494 
0.1867496089917529 
0.555726560454884 
0.1461300739034354 
-1.031476093978616 
0.3077687243200157 
-1.031538967882866 
-3.202440519291627 
0 
0 
-0.4156174334575188 
-0.3560360587055685 
0.002488375916324929 
0.4415112137064258 
0.3756401132187753 
0 
-0.0815026870414173 
0 
0.4907677283209713 
-1.174632055551514 
-0.310949021694562 
-3.321639661670887 
0.7077818525736757 
1.266370715940966 
-0.04574893618738762 
0.7777849628401716 
0.2731654484440897 
0.3798423059910406 
0 
-0.8660714482448674 
0.09111153783148866 
0.3984117288851473 
0 
0.6885253903190985 
0.3203820232162522 
0.1137771344047001 
1.12467163695687 
0.5701090801526008 
0.0002700483662712704 
0.0008469508490152093 
0.06518716165215588 
0.006986568459759235 
-0.7872219412741229 
0 
-3.009899809167369 
-1.23982400364904 
0.3680407820321704 
0.2956592351246786 
0.3142746585698102 
-1.167339339078625 
0.75 
-0.08068500988343504 
0.05721995082522003 
0 
